tree
version=v4
num_class=1
num_tree_per_iteration=1
label_index=0
max_feature_idx=25
objective=regression_l1
feature_names=Inventory_Level Units_Ordered Price Discount Holiday/Promotion Competitor_Pricing Year Month Day DayOfWeek WeekOfYear Units_Sold_Lag_1 Units_Sold_Rolling_7 Category_Electronics Category_Furniture Category_Groceries Category_Toys Region_North Region_South Region_West Weather_Condition_Rainy Weather_Condition_Snowy Weather_Condition_Sunny Seasonality_Spring Seasonality_Summer Seasonality_Winter
feature_infos=[50:500] [20:200] [10:100] [0:20] [0:1] [5.0300000000000002:104.94] [2022:2023] [1:12] [1:31] [0:6] [1:52] [0:499] [0:393] [0:1] [0:1] [0:1] [0:1] [0:1] [0:1] [0:1] [0:1] [0:1] [0:1] [0:1] [0:1] [0:1]
tree_sizes=2434 2752 2803 2816 2827 2758 2829 2835 2834 2843 2826 2769 2840 2839 2837 2764 2809 2812 2837 2856 2848 2712 2815 2823 2821 2838 2870 2847 2856 2862 2826 2841 2856 2843 2837 2842 2854 2830 2838 2822 2869 2759 2858 2830 2845 2790 2824 2858 2821 2833 2846 2814 2848 2810 2792 2777 2778 2783 2839 2804 2833 2825 2842 2757 2798 2806 2771 2835 2840 2857 2770 2774 2818 2825 2876 2736 2760 2793 2788 2786 2824 2818 2819 2777 2750 2787 2826 2768 2732 2820 2777 2784 2777 2810 2781 2760 2789 2877 2782 2828 2789 2739 2804 2745 2771 2827 2750 2768 2780 2721 2728 2797 2824 2802

Tree=0
num_leaves=31
num_cat=0
split_feature=12 1 10 2 5 11 11 7 20 2 2 10 1 12 8 20 12 5 8 1 11 8 6 5 11 10 2 10 1 17
split_gain=4.04927 6.93714 10.9967 11.9625 4.60684 4.26243 6.67212 3.99899 4.2514 4.61992 4.81837 3.73222 5.94616 10.0118 7.35743 7.13682 6.86416 5.23767 4.55168 4.53555 4.12279 12.6806 14.6794 9.82096 9.71609 10.0634 8.64611 8.9519 8.5274 6.71964
threshold=50.642857142857146 108.50000000000001 14.500000000000002 76.77500000000002 57.605000000000011 45.500000000000007 22.500000000000004 6.5000000000000009 1.0000000180025095e-35 41.105000000000011 67.385000000000005 48.500000000000007 131.50000000000003 90.928571428571445 16.500000000000004 1.0000000180025095e-35 83.071428571428584 96.555000000000021 23.500000000000004 153.50000000000003 176.50000000000003 10.500000000000002 2022.5000000000002 8.7550000000000008 244.50000000000003 47.500000000000007 98.695000000000007 15.500000000000002 133.50000000000003 1.0000000180025095e-35
decision_type=2 2 2 2 2 2 2 2 2 2 2 2 2 2 2 2 2 2 2 2 2 2 2 2 2 2 2 2 2 2
left_child=1 2 -1 4 -4 6 7 8 9 -3 -11 20 14 16 17 -15 -14 -13 19 -17 -2 22 23 -22 26 -26 27 28 -23 -24
right_child=11 5 3 -5 -6 -7 -8 -9 -10 10 -12 12 13 15 -16 18 -18 -19 -20 -21 21 24 29 -25 25 -27 -28 -29 -30 -31
leaf_value=110.3 107.05 106 106.5 110.40000000000001 105.05 106.825 104.84999999999999 104.2 104.15000000000001 111.84999999999999 106 107.59999999999999 107.34999999999999 106 106.65000000000001 106.09999999999999 109.02500000000001 105.875 106.40000000000001 109.45 103.59999999999999 107.75 106.15000000000001 107.05 107.25 110.95 108.875 106.59999999999999 106.59999999999999 106.925
leaf_weight=58 35138 29 99 51 44 76 59 33 24 21 23 604 89 590 707 45 32 32 51 76 23 881 1759 2741 6011 42 66 2901 521 578
leaf_count=58 35138 29 99 51 44 76 59 33 24 21 23 604 89 590 707 45 32 32 51 76 23 881 1759 2741 6011 42 66 2901 521 578
internal_value=107 106.996 107.002 106.996 106.988 106.99 106.986 106.992 106.997 107.003 107.014 107 106.998 106.995 107 106.993 107.008 107.004 107.002 107.007 107 107 106.997 107 107.001 107.002 106.999 106.998 107.002 106.995
internal_weight=0 517 252 194 143 265 189 130 97 73 44 52887 2226 883 1343 762 121 636 172 121 50661 15523 5101 2764 10422 6053 4369 4303 1402 2337
internal_count=53404 517 252 194 143 265 189 130 97 73 44 52887 2226 883 1343 762 121 636 172 121 50661 15523 5101 2764 10422 6053 4369 4303 1402 2337
is_linear=0
shrinkage=1


Tree=1
num_leaves=31
num_cat=0
split_feature=0 0 0 0 0 0 0 0 0 0 0 5 0 0 5 8 13 1 11 5 11 8 8 1 11 11 8 7 19 3
split_gain=11928.6 1268.72 1195.21 162.874 106.387 89.7524 89.1002 31.9317 20.1346 15.9863 13.6018 11.7353 10.8613 8.31309 7.95862 8.14597 7.79823 7.28504 7.23265 6.81395 7.63229 9.98246 7.73059 6.73751 6.58117 15.3636 13.093 11.4012 12.7472 8.07644
threshold=187.50000000000003 130.50000000000003 291.50000000000006 221.50000000000003 383.50000000000006 150.50000000000003 112.50000000000001 253.50000000000003 323.50000000000006 448.50000000000006 167.50000000000003 52.695000000000007 138.50000000000003 120.50000000000001 13.875000000000002 4.5000000000000009 1.0000000180025095e-35 192.50000000000003 467.50000000000006 34.685000000000009 214.50000000000003 11.500000000000002 18.500000000000004 42.500000000000007 188.50000000000003 158.50000000000003 22.500000000000004 3.5000000000000004 1.0000000180025095e-35 1.0000000180025095e-35
decision_type=2 2 2 2 2 2 2 2 2 2 2 2 2 2 2 2 2 2 2 2 2 2 2 2 2 2 2 2 2 2
left_child=1 6 3 18 8 12 -1 -5 -4 -6 11 14 -3 -8 -7 -16 24 -18 19 20 -2 -22 -23 -21 25 -9 -26 28 -27 -28
right_child=2 5 4 7 9 10 13 16 -10 -11 -12 -13 -14 -15 15 -17 17 -19 -20 23 21 22 -24 -25 26 27 29 -29 -30 -31
leaf_value=-3.4525000000000001 -0.4524999999999999 -2.0024999999999999 2.4375 0.49750000000000016 4.8475000000000001 -1.9524999999999999 -2.4625000000000004 1.4475000000000002 3.3975000000000004 6.2475000000000005 -1.05 -1.5100000000000002 -1.8025 -2.2025000000000001 0.025000000000000001 -1.0625 0.84750000000000014 4.1475 -2.1274999999999999 0.022500000000000145 -0.30750000000000033 1.6875 0.38750000000000001 -0.65249999999999986 2.0787500000000003 3.1125000000000003 -1.2325000000000004 -0.90249999999999986 -1.0800000000000001 1.0537500000000002
leaf_weight=7439 870 933 3803 3865 7600 77 1002 2327 7062 6153 2483 1030 1420 1180 107 753 889 27 20 392 97 65 97 2595 712 53 53 162 26 222
leaf_count=7439 870 933 3803 3865 7600 77 1002 2327 7062 6153 2483 1030 1420 1180 107 753 889 27 20 392 97 65 97 2595 712 53 53 162 26 222
internal_value=0 -0.0354664 0.0157172 0.00310696 0.0221058 -0.0189402 -0.0471521 0.00713172 0.0184077 0.0250273 -0.014764 -0.0178699 -0.0268381 -0.0382676 -0.0138207 -0.0124419 0.0100089 0.0058952 -0.00500484 -0.00485909 -0.00155004 0.00598456 0.0135802 -0.00610981 0.0110689 0.0097352 0.014539 -0.00228216 0.0132911 0.00527273
internal_weight=0 16424 37090 12472 24618 6803 9621 8336 10865 13753 4450 1967 2353 2182 937 860 4471 916 4136 4116 1129 259 162 2987 3555 2568 987 241 79 275
internal_count=53514 16424 37090 12472 24618 6803 9621 8336 10865 13753 4450 1967 2353 2182 937 860 4471 916 4136 4116 1129 259 162 2987 3555 2568 987 241 79 275
is_linear=0
shrinkage=0.05


Tree=2
num_leaves=31
num_cat=0
split_feature=0 0 0 0 0 0 0 0 0 12 0 0 5 5 1 0 12 5 12 5 9 0 5 20 5 1 0 11 14 12
split_gain=11271.4 1160.66 1115.78 184.601 104.746 89.6352 89.2225 27.7176 23.2493 15.0142 12.8165 12.0939 11.2243 10.3271 8.73016 8.53432 8.41977 8.08061 7.96063 8.68561 9.06749 7.78762 7.21045 7.12807 7.58723 7.72207 7.03633 6.9168 8.39598 7.02548
threshold=183.50000000000003 126.50000000000001 293.50000000000006 221.50000000000003 383.50000000000006 110.50000000000001 146.50000000000003 241.50000000000003 329.50000000000006 60.642857142857146 448.50000000000006 158.50000000000003 82.02500000000002 20.095000000000002 76.500000000000014 138.50000000000003 163.07142857142858 61.635000000000012 83.071428571428584 26.015000000000004 4.5000000000000009 205.50000000000003 99.225000000000009 1.0000000180025095e-35 50.945000000000007 81.500000000000014 116.50000000000001 63.500000000000007 1.0000000180025095e-35 135.6428571428572
decision_type=2 2 2 2 2 2 2 2 2 2 2 2 2 2 2 2 2 2 2 2 2 2 2 2 2 2 2 2 2 2
left_child=1 5 3 21 8 -1 15 -5 13 12 -6 -8 14 27 -9 -3 -11 -12 19 -13 -21 -2 23 -18 -25 -26 -7 28 -4 -29
right_child=2 6 4 7 10 26 11 9 -10 16 17 18 -14 -15 -16 -17 22 -19 -20 20 -22 -23 -24 24 25 -27 -28 29 -30 -31
leaf_value=-3.2798750000000001 -0.72487500000000016 -1.8811249999999999 3.0276250000000005 0.37262500000000004 4.6051250000000001 -2.3298749999999999 -1.4123750000000002 2.8338749999999999 3.2776250000000005 1.0377187500000002 6.2851250000000007 0.75 -2.0948749999999996 2.3256250000000001 -1.0636250000000005 -1.7111250000000002 1.4626250000000001 5.7251250000000002 -1.1100000000000001 -0.058499999999999733 -1.8612500000000001 -0.26737499999999986 -0.9323750000000004 2.5018437500000004 -0.29849999999999993 2.098875 -2.2046249999999996 -0.44837499999999975 -0.42437499999999989 1.6256250000000003
leaf_weight=7202 2645 1382 134 2430 7717 697 1436 22 6420 4378 3554 43 25 3701 77 930 1197 2677 2769 146 70 1957 29 166 59 136 1256 142 36 189
leaf_count=7202 2645 1382 134 2430 7717 697 1436 22 6420 4378 3554 43 25 3701 77 930 1197 2677 2769 146 70 1957 29 166 59 136 1256 142 36 189
internal_value=0 -0.0353964 0.0147675 0.0029952 0.0210541 -0.0470071 -0.0197093 0.00735415 0.0173131 0.00915585 0.0239031 -0.0155802 -0.00806452 0.0144217 -0.000505051 -0.0276817 0.00951383 0.0255898 -0.013788 -0.00540541 -0.00949074 -0.00507388 0.0126339 0.0130937 0.0192521 0.0125641 -0.0375064 0.00768463 0.0158824 0.00347432
internal_weight=0 15931 37691 13121 24570 9155 6776 8519 10622 6089 13948 4464 124 4202 99 2312 5965 6231 3028 259 216 4602 1587 1558 361 195 1953 501 170 331
internal_count=53622 15931 37691 13121 24570 9155 6776 8519 10622 6089 13948 4464 124 4202 99 2312 5965 6231 3028 259 216 4602 1587 1558 361 195 1953 501 170 331
is_linear=0
shrinkage=0.05


Tree=3
num_leaves=31
num_cat=0
split_feature=0 0 0 0 0 0 0 0 0 0 16 0 7 5 7 17 12 5 12 5 0 12 12 1 0 12 11 12 11 12
split_gain=10556.6 1226.44 1032.47 146.84 131.532 98.5692 56.6507 37.4935 14.9562 11.7251 14.2069 11.5392 9.27574 11.1049 10.8871 8.8432 8.69815 9.33264 10.9257 8.11295 8.09614 9.75733 8.75906 10.6248 7.98561 7.90068 7.49334 7.46639 7.28881 12.6525
threshold=183.50000000000003 120.50000000000001 271.50000000000006 335.50000000000006 146.50000000000003 219.50000000000003 104.50000000000001 448.50000000000006 138.50000000000003 241.50000000000003 1.0000000180025095e-35 167.50000000000003 4.5000000000000009 34.685000000000009 3.5000000000000004 1.0000000180025095e-35 181.6428571428572 55.505000000000003 133.46428571428575 61.635000000000012 309.50000000000006 110.73214285714288 57.928571428571438 125.50000000000001 383.50000000000006 211.6428571428572 1.5000000000000002 183.17142857142861 118.50000000000001 100.50000000000001
decision_type=2 2 2 2 2 2 2 2 2 2 2 2 2 2 2 2 2 2 2 2 2 2 2 2 2 2 2 2 2 2
left_child=1 6 5 20 8 12 -1 24 -3 -7 26 16 13 14 -2 -10 17 18 -6 -9 22 28 23 -4 -5 27 -11 -26 -22 -30
right_child=2 4 3 7 11 9 -8 19 15 10 -12 -13 -14 -15 -16 -17 -18 -19 -20 -21 21 -23 -24 -25 25 -27 -28 -29 29 -31
leaf_value=-3.16588125 0.019931250000000136 -1.9083187500000003 2.5093437500000002 3.1637437500000005 -1.1417562500000003 0.25399375000000007 -2.2433812499999997 6.1221187500000003 -1.4768187500000005 -0.78763125000000045 1.4732390625000003 -0.94200000000000017 -0.71150625000000012 -0.45650624999999967 1.2949312500000003 -2.0018187500000004 -1.4413156250000001 -1.4890687500000004 -0.56881562500000027 5.4488687499999999 3.2093437500000004 2.2613437500000004 1.7244890625000004 -1.4759124999999997 4.2248687500000006 3.3998687500000004 0.68663593749999985 5.1748687500000008 1.05934375 3.05934375
leaf_weight=6490 312 2136 45 5720 619 2681 1935 3499 693 39 701 2007 2787 1145 106 240 340 1044 456 2628 645 2179 4368 38 6683 316 2776 696 139 93
leaf_count=6490 312 2136 45 5720 619 2681 1935 3499 693 39 701 2007 2787 1145 106 240 340 1044 456 2628 645 2179 4368 38 6683 316 2776 696 139 93
internal_value=0 -0.0345301 0.0140041 0.0191782 -0.0198739 0.000734806 -0.047638 0.0214615 -0.0278429 0.00478457 0.00668373 -0.0143977 -0.00503448 -0.00195138 0.00502392 -0.0225616 -0.0166938 -0.0155026 -0.0122326 0.0247021 0.0132343 0.015216 0.0118737 -0.00421687 0.0199814 0.0210331 0.00509769 0.0213647 0.0196693 0.012069
internal_weight=0 15960 37596 27049 7535 10547 8425 19542 3069 6197 3516 4466 4350 1563 418 933 2459 2119 1075 6127 7507 3056 4451 83 13415 7695 2815 7379 877 232
internal_count=53556 15960 37596 27049 7535 10547 8425 19542 3069 6197 3516 4466 4350 1563 418 933 2459 2119 1075 6127 7507 3056 4451 83 13415 7695 2815 7379 877 232
is_linear=0
shrinkage=0.05


Tree=4
num_leaves=31
num_cat=0
split_feature=0 0 0 0 0 0 0 0 0 0 0 2 1 10 5 1 0 2 0 1 5 15 1 2 6 24 10 2 8 1
split_gain=9746.95 1234.07 925.363 160.835 135.34 79.1996 63.7289 29.1562 18.2629 12.0643 11.7199 10.1098 9.30924 8.83043 8.76664 11.8913 8.66777 8.24162 8.23615 8.23312 7.88862 7.82824 7.68396 7.38806 9.95692 7.32485 7.07364 6.97814 7.63597 6.95821
threshold=169.50000000000003 269.50000000000006 120.50000000000001 337.50000000000006 217.50000000000003 102.50000000000001 138.50000000000003 444.50000000000006 241.50000000000003 154.50000000000003 183.50000000000003 14.905000000000003 126.50000000000001 14.500000000000002 20.095000000000002 141.50000000000003 373.50000000000006 21.625000000000004 291.50000000000006 100.50000000000001 83.405000000000015 1.0000000180025095e-35 153.50000000000003 76.77500000000002 2022.5000000000002 1.0000000180025095e-35 45.500000000000007 57.615000000000002 3.5000000000000004 124.50000000000001
decision_type=2 2 2 2 2 2 2 2 2 2 2 2 2 2 2 2 2 2 2 2 2 2 2 2 2 2 2 2 2 2
left_child=2 4 5 14 10 -1 -4 16 12 -8 13 -9 19 23 15 -3 -5 25 21 -6 26 27 -23 -2 -25 -12 -11 -16 -29 -27
right_child=1 3 6 7 8 -7 9 11 -10 20 17 -13 -14 -15 18 -17 -18 -19 -20 -21 -22 22 -24 24 -26 29 -28 28 -30 -31
leaf_value=-3.0075871875 -0.94740000000000046 1.8312765625000005 -1.8129028125 2.9555565625000009 0.091294062499999745 -2.1557121875000003 -1.4029778125000001 7.6054440625000002 0.84707710937500025 -0.83204656249999975 0.42715812500000006 5.3518440624999997 0.53629406249999967 -1.0974000000000004 1.5356107031250001 -0.076773437499999278 4.0070909375000001 -0.5809309374999998 2.1297265625000006 -0.60870593750000035 -1.6982403906249997 2.8296302343750002 0.73701460937500018 0.95259999999999967 -0.29740000000000039 -0.14384187500000004 -1.9803154687500006 2.5020146093750006 0.64623570312500045 -1.9068778125000003
leaf_weight=6226 363 667 2097 4196 1305 2184 1917 342 3309 1361 398 6294 1218 1220 902 300 8338 3616 4674 407 296 314 119 61 70 84 91 76 882 45
leaf_count=6226 363 667 2097 4196 1305 2184 1917 342 3309 1361 398 6294 1218 1220 902 300 8338 3616 4674 407 296 314 119 61 70 84 91 76 882 45
internal_value=0 0.0121224 -0.0362616 0.018049 -0.00115741 -0.0468371 -0.0208261 0.0205269 0.00396698 -0.0168486 -0.00661602 0.0232068 0.00109215 -0.0100933 0.012062 0.00760083 0.019108 -0.00517741 0.0126812 -0.00128505 -0.0138444 0.0102268 0.0162818 -0.00445344 0.00572519 0.000664137 -0.0123278 0.0088172 0.00584551 -0.00968992
internal_weight=0 39200 14172 27104 12096 8410 5762 19170 6239 3665 5857 6636 2930 1714 7934 967 12534 4143 6967 1712 1748 2293 433 494 131 527 1452 1860 958 129
internal_count=53372 39200 14172 27104 12096 8410 5762 19170 6239 3665 5857 6636 2930 1714 7934 967 12534 4143 6967 1712 1748 2293 433 494 131 527 1452 1860 958 129
is_linear=0
shrinkage=0.05


Tree=5
num_leaves=31
num_cat=0
split_feature=12 1 11 7 5 2 10 5 23 2 8 11 2 8 11 1 7 1 1 1 2 10 11 10 10 2 5 5 11 12
split_gain=6.12582 8.35727 8.04509 6.70654 6.22224 7.02356 6.70475 6.08805 5.51476 5.20281 5.02609 4.99497 4.48447 5.30325 9.57084 5.5483 7.05997 4.03419 3.88876 3.96002 3.50303 3.2796 11.37 10.1134 8.86067 8.75266 8.32297 8.79352 9.82672 10.0787
threshold=54.75714285714286 135.50000000000003 112.50000000000001 3.5000000000000004 57.245000000000012 89.965000000000018 15.500000000000002 27.865000000000006 1.0000000180025095e-35 20.895000000000003 7.5000000000000009 38.500000000000007 31.085000000000004 19.500000000000004 17.500000000000004 93.500000000000014 6.5000000000000009 46.500000000000007 182.50000000000003 162.50000000000003 37.965000000000011 31.500000000000004 38.500000000000007 24.500000000000004 33.500000000000007 86.875000000000014 82.675000000000026 79.955000000000013 158.50000000000003 168.21428571428575
decision_type=2 2 2 2 2 2 2 2 2 2 2 2 2 2 2 2 2 2 2 2 2 2 2 2 2 2 2 2 2 2
left_child=1 2 3 17 7 6 -6 11 -9 -5 -11 -3 -12 15 -15 16 -14 20 19 -8 -1 23 25 -2 -24 -23 27 -26 29 -29
right_child=21 4 -4 9 5 -7 18 8 -10 10 12 -13 13 14 -16 -17 -18 -19 -20 -21 -22 22 24 -25 26 -27 -28 28 -30 -31
leaf_value=-1.2240449765624999 -0.13336703124999971 -1.4959265781249997 -2.1749999375 2.942212734375 1.7613331093749993 -2.4799168906250006 -0.84677843164062461 -2.1883794023437502 -2.7647078281250006 -1.0631449374999999 -1.8274675000000002 1.3056931875000004 -3.348446734375 -2.1854591562500008 0.90686560937500005 4.3016205976562505 1.6446710781249998 1.963259900390625 -2.5129988554687497 2.511297484375 2.0401267832031249 -0.31886532812500018 -0.48752509374999992 0.1574699999999993 -0.075689923828125324 -1.041166890625 0.36529217187500013 -0.77973453320312491 -1.6354468906249999 2.8052294003906257
leaf_weight=20 26580 33 24 29 29 29 32 81 25 46 23 20 20 26 47 29 39 122 25 22 24 3082 1746 7743 10232 513 2507 178 156 34
leaf_count=20 26580 33 24 29 29 29 32 81 25 46 23 20 20 26 47 29 39 122 25 22 24 3082 1746 7743 10232 513 2507 178 156 34
internal_value=0 -0.00530201 -0.00100223 0.000588235 -0.0118243 -0.0040146 0.00185185 -0.0185535 -0.0254717 -0.00444015 -0.00695652 -0.00471698 -0.00326087 -0.000310559 -0.010274 0.00795455 -0.000847458 0.00843373 -0.0056962 0.00185185 -0.00454545 -0.0007362 -0.00127385 -0.000447222 -0.000663166 -0.00379694 -0.000217441 -0.000830189 -0.00842391 -0.00141509
internal_weight=0 745 449 425 296 137 108 159 106 259 230 53 184 161 73 88 59 166 79 54 44 52771 18448 34323 14853 3595 13107 10600 368 212
internal_count=53516 745 449 425 296 137 108 159 106 259 230 53 184 161 73 88 59 166 79 54 44 52771 18448 34323 14853 3595 13107 10600 368 212
is_linear=0
shrinkage=0.05


Tree=6
num_leaves=31
num_cat=0
split_feature=0 0 0 0 0 0 0 0 0 0 12 10 5 11 5 13 0 1 5 12 5 1 5 8 11 5 0 0 1 1
split_gain=9283.93 1106.6 923.785 146.753 110.903 98.5885 55.9903 20.1341 16.9184 13.5792 13.1373 12.5204 9.95416 9.07058 8.2321 7.88314 7.65308 7.38535 11.8161 7.31213 9.70474 13.1416 10.3642 10.493 8.73739 7.30435 7.12683 6.77323 6.73989 6.6946
threshold=169.50000000000003 277.50000000000006 120.50000000000001 217.50000000000003 337.50000000000006 102.50000000000001 146.50000000000003 444.50000000000006 241.50000000000003 195.50000000000003 135.6428571428572 13.500000000000002 83.035000000000011 216.50000000000003 44.635000000000012 1.0000000180025095e-35 189.50000000000003 98.500000000000014 99.885000000000005 157.92857142857147 94.405000000000015 130.50000000000003 34.685000000000009 24.500000000000004 14.500000000000002 95.115000000000023 94.500000000000014 177.50000000000003 100.50000000000001 38.500000000000007
decision_type=2 2 2 2 2 2 2 2 2 2 2 2 2 2 2 2 2 2 2 2 2 2 2 2 2 2 2 2 2 2
left_child=2 3 5 9 -3 26 -4 17 -5 11 15 13 -8 27 -9 -10 -15 -6 19 -19 22 -22 24 28 -21 -14 -1 29 -24 -2
right_child=1 4 6 8 7 -7 12 14 10 -11 -12 -13 25 16 -16 -17 -18 18 -20 20 21 -23 23 -25 -26 -27 -28 -29 -30 -31
leaf_value=-2.9442894765625001 -1.3783616484374996 1.8908123204101557 -1.6184731756835937 0.19339771093750002 3.8044470859375004 -2.004602330029297 -0.9398174585449216 5.8215680351562504 0.70928159843749938 -0.34041239443359361 1.1443936367187497 -0.93984103906249961 -1.7304235253906253 -0.4127160390625001 4.6538389609375006 -0.27421119843749936 -2.7850910390624999 3.4099391171875006 0.74750615703125056 -0.70769435117187462 -0.33155689843749947 6.6224391171875006 -2.2619528242187497 4.0570011738769542 3.8644470859375009 -1.3503474414062495 -2.2302768824218755 0.16538835156249976 2.1855641171875009 -0.39336164843750016
leaf_weight=5249 27 7047 3080 2887 5611 2196 2256 2466 1717 2698 2117 2267 322 148 4152 447 43 5069 103 28 26 71 24 304 513 161 954 470 1036 163
leaf_count=5249 27 7047 3080 2887 5611 2196 2256 2466 1717 2698 2117 2267 322 148 4152 447 43 5069 103 28 26 71 24 304 513 161 954 470 1036 163
internal_value=0 0.0117006 -0.0354269 -0.000254159 0.017569 -0.0460352 -0.0201151 0.0195202 0.00453404 -0.00615543 0.00652885 -0.00840282 -0.0149142 -0.00323149 0.0217588 0.00378928 -0.0128272 0.0183614 0.0172986 0.0175435 0.014985 0.0304124 0.0141995 0.0118768 0.0200555 -0.0214286 -0.0492584 -0.000454545 0.0095283 -0.00842105
internal_weight=0 39434 14218 12984 26450 8399 5819 19403 7168 5816 4281 3118 2739 851 6618 2164 191 12785 7174 7071 2002 97 1905 1364 541 483 6203 660 1060 190
internal_count=53652 39434 14218 12984 26450 8399 5819 19403 7168 5816 4281 3118 2739 851 6618 2164 191 12785 7174 7071 2002 97 1905 1364 541 483 6203 660 1060 190
is_linear=0
shrinkage=0.05


Tree=7
num_leaves=31
num_cat=0
split_feature=0 0 0 0 0 0 0 0 0 7 0 0 0 17 5 11 1 5 1 7 16 10 8 0 10 1 0 11 2 5
split_gain=8684.9 1025.13 906.267 121.718 111.393 99.8318 56.8635 23.3091 17.726 14.0144 17.1281 13.5305 8.56371 8.36358 9.04348 8.04697 8.98299 7.47673 7.29667 6.82278 8.00207 7.39877 10.546 8.50717 6.83113 7.95396 7.88061 6.78112 7.88107 6.77312
threshold=173.50000000000003 112.50000000000001 271.50000000000006 369.50000000000006 138.50000000000003 221.50000000000003 96.500000000000014 309.50000000000006 128.50000000000003 2.5000000000000004 189.50000000000003 444.50000000000006 219.50000000000003 1.0000000180025095e-35 84.805000000000021 413.50000000000006 171.50000000000003 26.385000000000002 26.500000000000004 7.5000000000000009 1.0000000180025095e-35 40.500000000000007 10.500000000000002 209.50000000000003 17.500000000000004 92.500000000000014 205.50000000000003 7.5000000000000009 36.125000000000007 60.895000000000003
decision_type=2 2 2 2 2 2 2 2 2 2 2 2 2 2 2 2 2 2 2 2 2 2 2 2 2 2 2 2 2 2
left_child=1 6 5 7 8 9 -1 -4 -3 12 18 -5 -2 14 -6 -13 -17 -10 -11 20 27 -21 23 -23 25 26 -22 -12 -29 -19
right_child=2 4 3 11 13 -7 -8 -9 17 10 19 15 -14 -15 -16 16 -18 29 -20 21 24 22 -24 -25 -26 -27 -28 28 -30 -31
leaf_value=-2.7533250027343747 -0.042881066015625184 -1.8109610702172845 1.4000817357031252 3.5797167628906252 -0.94470860523803712 0.57718600583984347 -1.9919119654321287 2.3087554273388684 -1.3419365873095703 -2.2186137194824225 -2.0790704193408196 4.8730174160156254 2.2061028253906247 -1.43350781489502 -1.6677258464843754 3.5778095128906253 -2.1221904871093757 -1.5571285149951173 -0.90931992612304779 -0.98107927471191381 1.2919295806591806 -1.3728054263720695 0.13577117289550814 0.15687162050293041 0.79013772909668001 -1.1116210834033198 -1.0767721746093748 0.27180458065918034 -0.52318905478759736 -1.2895616685595706
leaf_weight=5476 1024 1947 4469 8886 2586 5978 1899 7094 200 58 65 6519 38 1046 521 104 21 454 1554 809 31 83 498 53 211 74 37 425 928 519
leaf_count=5476 1024 1947 4469 8886 2586 5978 1899 7094 200 58 65 6519 38 1046 521 104 21 454 1554 809 31 83 498 53 211 74 37 425 928 519
internal_value=0 -0.0338408 0.0113209 0.0163677 -0.0205211 -0.000202259 -0.0469763 0.0124838 -0.0276603 -0.00482337 -0.00596768 0.0192595 0.000376648 -0.0151577 -0.0138558 0.0209663 0.0084 -0.0228048 -0.0101737 -0.00385812 -0.00177866 -0.00641026 -0.00236593 -0.0147059 0.00495751 -0.00352113 0.00882353 -0.00345557 -0.00269771 -0.0246146
internal_weight=0 14648 38959 27093 7273 11866 7375 11563 3120 5888 4826 15530 1062 4153 3107 6644 125 1173 1612 3214 1771 1443 634 136 353 142 68 1418 1353 973
internal_count=53607 14648 38959 27093 7273 11866 7375 11563 3120 5888 4826 15530 1062 4153 3107 6644 125 1173 1612 3214 1771 1443 634 136 353 142 68 1418 1353 973
is_linear=0
shrinkage=0.05


Tree=8
num_leaves=31
num_cat=0
split_feature=0 0 0 0 0 0 0 0 0 0 0 0 10 0 5 10 16 2 12 9 12 12 5 11 2 9 5 11 14 0
split_gain=8343.71 944.614 917.528 156.142 96.315 70.6951 55.0476 25.3654 14.1132 13.1274 10.1001 9.82347 9.02699 11.4015 8.95774 8.65326 8.50081 10.1178 10.1419 8.70051 8.1551 8.2998 8.09288 13.2864 7.71925 12.2735 7.63752 11.6393 9.81424 8.40647
threshold=167.50000000000003 116.50000000000001 253.50000000000003 335.50000000000006 94.500000000000014 219.50000000000003 138.50000000000003 457.50000000000006 189.50000000000003 287.50000000000006 383.50000000000006 126.50000000000001 14.500000000000002 185.50000000000003 95.115000000000023 24.500000000000004 1.0000000180025095e-35 21.295000000000005 99.357142857142875 1.0000000180025095e-35 90.928571428571445 195.78571428571431 17.945000000000004 248.50000000000003 98.345000000000013 3.5000000000000004 82.675000000000026 308.50000000000006 1.0000000180025095e-35 154.50000000000003
decision_type=2 2 2 2 2 2 2 2 2 2 2 2 2 2 2 2 2 2 2 2 2 2 2 2 2 2 2 2 2 2
left_child=1 4 5 9 -1 8 11 10 12 16 -5 -3 13 20 -14 -12 22 -18 -19 -20 -2 -22 23 -4 -10 -26 -8 28 -28 -30
right_child=2 6 3 7 -6 -7 26 -9 24 -11 15 -13 14 -15 -16 -17 17 18 19 -21 21 -23 -24 -25 25 -27 27 -29 29 -31
leaf_value=-2.6656587525976563 0.36211772630859329 -1.7171135080650632 -0.76550427192968806 2.5812451087111818 -1.9730253249327394 0.38261852509863203 -0.98872656642266898 4.7646122867187515 -0.34751345784887633 1.8385791175068371 3.3564296883789071 -1.4096930911496586 -0.85016892830322277 0.65038206816284228 -2.1034036001782228 3.9184388278710944 2.6017409661054693 -0.21196523791357402 2.8350263736923824 1.3975420675068371 -0.90075259399285879 0.82217395878784183 0.93601452613378844 2.1569901742197262 -0.044074415761473779 -2.754949415761474 -1.7346299096777351 0.15893847921643031 0.01125394749151596 -1.5698062534277342
leaf_weight=5335 97 1254 240 5652 2620 4059 2789 4969 3532 5601 4357 1403 1828 150 111 4396 91 130 89 489 476 66 2953 35 35 27 458 59 70 46
leaf_count=5335 97 1254 240 5652 2620 4059 2789 4969 3532 5601 4357 1403 1828 150 111 4396 91 130 89 489 476 66 2953 35 35 27 458 59 70 46
internal_value=0 -0.0343737 0.0105261 0.0150921 -0.0457134 -0.00223004 -0.0195345 0.0176783 -0.00553622 0.00988783 0.0166158 -0.0249341 -0.0082478 -0.00373891 -0.0100825 0.0176797 0.00771045 0.0123279 0.0103107 0.0131488 -0.00665102 -0.00904059 0.00656753 -0.00163636 -0.00347802 -0.0209677 -0.0153419 -0.0203002 -0.0224739 -0.00948276
internal_weight=0 14034 39383 29002 7955 10381 6079 19374 6322 9628 14405 2657 2728 789 1939 8753 4027 799 708 578 639 542 3228 275 3594 62 3422 633 574 116
internal_count=53417 14034 39383 29002 7955 10381 6079 19374 6322 9628 14405 2657 2728 789 1939 8753 4027 799 708 578 639 542 3228 275 3594 62 3422 633 574 116
is_linear=0
shrinkage=0.05


Tree=9
num_leaves=31
num_cat=0
split_feature=0 0 0 0 0 0 0 0 2 0 1 1 0 0 0 1 7 18 1 2 2 8 13 5 10 2 0 1 1 14
split_gain=7556.75 990.163 722.262 160.628 107.58 84.9164 63.5016 20.9257 13.0422 12.9253 8.90398 8.85908 8.68746 7.98166 7.95879 7.54718 8.67937 7.8208 7.32325 7.37114 7.20648 8.18458 7.17983 11.5063 7.17147 8.6313 7.07069 6.95414 11.8658 6.93012
threshold=156.50000000000003 271.50000000000006 106.50000000000001 217.50000000000003 373.50000000000006 126.50000000000001 92.500000000000014 183.50000000000003 21.625000000000004 309.50000000000006 188.50000000000003 195.50000000000003 241.50000000000003 144.50000000000003 462.50000000000006 126.50000000000001 11.500000000000002 1.0000000180025095e-35 114.50000000000001 35.015000000000008 69.955000000000013 18.500000000000004 1.0000000180025095e-35 21.975000000000005 11.500000000000002 99.045000000000016 120.50000000000001 173.50000000000003 164.50000000000003 1.0000000180025095e-35
decision_type=2 2 2 2 2 2 2 2 2 2 2 2 2 2 2 2 2 2 2 2 2 2 2 2 2 2 2 2 2 2
left_child=2 3 6 7 9 26 -1 -2 10 20 -9 12 15 -7 29 18 17 -17 19 -5 -3 -22 -14 -24 25 -11 -4 28 -25 -6
right_child=1 4 5 11 14 13 -8 8 -10 24 -12 -13 22 -15 -16 16 -18 -19 -20 -21 21 -23 23 27 -26 -27 -28 -29 -30 -31
leaf_value=-2.536122746168946 -0.7948538763022186 1.5327404384193857 -1.688665100913886 0.69245067658385018 3.3026348387646496 -1.2892084365921754 -1.8907787679231634 0.40434797872740519 -0.55532403798133501 2.5166979431144911 -1.6799981230592409 1.2425035259687005 0.75760260814741232 -1.0683821575522188 4.5836326251171888 0.43859592337057407 -0.74792080891997204 1.2134875988437004 -0.79380425271879962 -0.13919536131254945 0.51682766163149485 1.487773453037744 -1.7134137307134276 0.52257749025336941 1.8911555326039491 -1.0034487573252917 -1.6820869326142025 1.6205788931796392 -1.9249666287212408 3.72251688647754
leaf_weight=5028 3290 2900 1673 395 8472 2116 1637 473 3570 1723 30 182 2746 1423 4434 798 54 266 187 1083 903 634 86 522 5748 21 728 79 40 2089
leaf_count=5028 3290 2900 1673 395 8472 2116 1637 473 3570 1723 30 182 2746 1423 4434 798 54 266 187 1083 903 634 86 522 5748 21 728 79 40 2089
internal_value=0 0.00908165 -0.0352202 -0.00180784 0.0146635 -0.0225421 -0.0465191 -0.00685183 -0.00445617 0.01112 0.00308151 0.00396086 0.0036445 -0.017618 0.0174825 0.00156306 0.00474061 0.00573308 -0.000570571 0.000608931 0.00898129 0.0062134 0.00531241 0.000894085 0.0123865 0.015195 -0.0298001 0.00319813 0.00124555 0.0167361
internal_weight=0 40725 12605 13801 26924 5940 6665 7363 4073 11929 503 6438 6256 3539 14995 2783 1118 1064 1665 1478 4437 1537 3473 727 7492 1744 2401 641 562 10561
internal_count=53330 40725 12605 13801 26924 5940 6665 7363 4073 11929 503 6438 6256 3539 14995 2783 1118 1064 1665 1478 4437 1537 3473 727 7492 1744 2401 641 562 10561
is_linear=0
shrinkage=0.05


Tree=10
num_leaves=31
num_cat=0
split_feature=0 0 0 0 0 0 0 0 0 0 11 6 1 14 11 10 12 2 2 12 0 3 7 12 1 14 1 9 16 1
split_gain=7155.43 850.342 678.581 125.547 92.2882 86.6833 70.2097 14.4205 14.0865 12.0224 10.4169 10.7923 9.42157 8.64109 10.5 7.24847 7.2172 7.19748 7.17675 7.16646 7.00568 7.55204 6.99945 6.616 7.30277 6.50043 8.92546 6.68376 11.173 8.31641
threshold=154.50000000000003 253.50000000000003 106.50000000000001 339.50000000000006 195.50000000000003 88.500000000000014 126.50000000000001 448.50000000000006 287.50000000000006 221.50000000000003 417.50000000000006 2022.5000000000002 109.50000000000001 1.0000000180025095e-35 17.500000000000004 46.500000000000007 228.6428571428572 14.905000000000003 14.185 57.928571428571438 116.50000000000001 17.500000000000004 5.5000000000000009 119.07142857142858 53.500000000000007 1.0000000180025095e-35 178.50000000000003 1.5000000000000002 1.0000000180025095e-35 27.500000000000004
decision_type=2 2 2 2 2 2 2 2 2 2 2 2 2 2 2 2 2 2 2 2 2 2 2 2 2 2 2 2 2 2
left_child=2 4 5 8 15 -1 20 -5 18 13 17 12 -12 16 -15 -2 22 -9 -3 -11 -4 -22 -6 24 -16 26 27 28 -20 -29
right_child=1 3 6 7 9 -7 -8 10 -10 19 11 -13 -14 14 23 -17 -18 -19 25 -21 21 -23 -24 -25 -26 -27 -28 29 -30 -31
leaf_value=-2.4555696776593265 -0.6484216162168569 -0.26851903530600224 -1.7123955352578393 2.7702065441203625 0.19035590819007098 -1.8207207319427099 -1.1752425017132495 6.2460506754796157 1.5861905655406034 -1.3139829876574198 1.4619649400917964 4.0898729362832027 -2.3753257343934315 1.0302753340300368 1.5895034169426343 -1.1361420620077998 1.3708878906706614 4.0784788549225359 -0.11954958874433359 0.33405525867202357 -1.4969890318236079 -1.6857830560816915 -0.28880745271916058 -1.0013339637166678 -0.52885179815396877 0.22022990055062516 1.8806784245121362 -0.74016755122055855 1.8102337654960108 1.2446117410614044
leaf_weight=4586 4582 177 1167 12868 1170 2113 3281 302 6096 57 27 45 24 68 26 308 58 5706 601 3762 976 249 1332 360 166 742 396 86 186 1807
leaf_count=4586 4582 177 1167 12868 1170 2113 3281 302 6096 57 27 45 24 68 26 308 58 5706 601 3762 976 249 1332 360 166 742 396 86 186 1807
internal_value=0 0.00837566 -0.0350145 0.0129839 -0.00288923 -0.0457904 -0.0222898 0.0153806 0.00847785 0.00079297 0.017382 0.00104167 -0.0147059 -0.00147799 -0.00677419 -0.00815951 -0.000195313 0.0176431 0.00617021 0.00268395 -0.0288043 -0.0261633 -0.00059952 -0.00905797 -0.0015625 0.00662651 0.00763979 0.00660448 0.00273189 0.00821447
internal_weight=0 40952 12372 29063 11889 6699 5673 18972 10091 6999 6104 96 51 3180 620 4890 2560 6008 3995 3819 2392 1225 2502 552 192 3818 3076 2680 787 1893
internal_count=53324 40952 12372 29063 11889 6699 5673 18972 10091 6999 6104 96 51 3180 620 4890 2560 6008 3995 3819 2392 1225 2502 552 192 3818 3076 2680 787 1893
is_linear=0
shrinkage=0.05


Tree=11
num_leaves=31
num_cat=0
split_feature=12 11 8 10 10 9 25 23 14 8 7 9 18 11 16 11 2 11 11 2 2 25 4 12 10 10 11 18 2 2
split_gain=4.1689 8.15771 7.61486 5.99259 5.70612 13.7883 5.94073 5.14504 4.66638 5.40834 5.52539 4.30594 4.50667 4.1901 5.698 4.03333 3.97082 4.02304 4.32945 4.10808 5.16308 3.98294 3.86501 3.58186 6.8323 9.05523 9.11243 16.0272 11.6656 7.13914
threshold=60.642857142857146 157.50000000000003 12.500000000000002 51.500000000000007 34.500000000000007 4.5000000000000009 1.0000000180025095e-35 1.0000000180025095e-35 1.0000000180025095e-35 21.500000000000004 3.5000000000000004 1.5000000000000002 1.0000000180025095e-35 68.500000000000014 1.0000000180025095e-35 61.500000000000007 25.665000000000003 109.50000000000001 82.500000000000014 48.855000000000011 72.095000000000013 1.0000000180025095e-35 1.0000000180025095e-35 79.357142857142875 4.5000000000000009 12.500000000000002 58.500000000000007 1.0000000180025095e-35 47.045000000000009 91.745000000000019
decision_type=2 2 2 2 2 2 2 2 2 2 2 2 2 2 2 2 2 2 2 2 2 2 2 2 2 2 2 2 2 2
left_child=1 2 3 7 8 6 11 16 -4 -10 -11 -6 -13 14 -9 -7 -1 18 19 21 -21 -18 -5 24 -2 26 27 -26 -29 -28
right_child=23 -3 4 22 5 15 -8 13 9 10 -12 12 -14 -15 -16 -17 17 -19 -20 20 -22 -23 -24 -25 25 -27 29 28 -30 -31
leaf_value=-0.25542981895274436 -0.60154674021719579 -2.0407636126040649 0.046451775961924117 1.4138798014710816 -0.95196588937489468 2.6512706076910928 0.61074328771574216 0.19971570666599447 4.7788608735154057 -1.8891188885665047 1.2211027888054951 -2.3009795443770189 -1.0655922304969985 0.77049822795061551 -1.3869003316190671 -0.56413070253933884 -2.5327911937763603 -1.9684274418670809 0.21106474211419268 -0.50031302217238827 -1.4706442457522571 -1.272514483121578 -1.2495509607168431 -0.16758714422676349 -0.8036612532532541 -0.019714396496683408 1.5268668656076878 -0.3874753227374903 5.0489927696203996 -1.0707282137342056
leaf_weight=60 226 36 303 51 34 40 27 59 40 23 28 50 25 20 22 20 43 22 32 76 79 29 55 49248 188 2208 187 21 29 25
leaf_count=60 226 36 303 51 34 40 27 59 40 23 28 50 25 20 22 20 43 22 32 76 79 29 55 49248 188 2208 187 21 29 25
internal_value=0 -0.00434412 -0.00360281 -0.00784672 0.000338983 -0.00663265 -0.0154412 -0.0104072 0.00380711 0.0137363 0.00294118 -0.0206422 -0.0273333 -0.00049505 -0.00555556 0.0133333 -0.0133431 -0.0158363 -0.0140927 -0.0165198 -0.0119355 -0.0263889 0.00283019 -0.00133124 0.000381415 0.00109105 0.00755556 0.000840336 0.026 0.0150943
internal_weight=0 1174 1138 548 590 196 136 442 394 91 51 109 75 101 81 60 341 281 259 227 155 72 106 52132 2884 2658 450 238 50 212
internal_count=53306 1174 1138 548 590 196 136 442 394 91 51 109 75 101 81 60 341 281 259 227 155 72 106 52132 2884 2658 450 238 50 212
is_linear=0
shrinkage=0.05


Tree=12
num_leaves=31
num_cat=0
split_feature=0 0 0 0 0 0 0 0 0 0 0 5 5 5 8 13 5 11 5 25 8 11 5 8 5 7 10 11 8 10
split_gain=6765.97 888.197 616.734 158.761 99.0128 68.1562 32.1716 19.5986 19.4692 18.2616 11.956 11.3812 11.3562 8.98702 8.30954 8.43924 7.8462 7.69939 13.1174 17.4118 9.73347 7.96488 10.2258 12.1284 8.12233 7.89203 7.68215 7.51361 7.48507 7.40139
threshold=150.50000000000003 241.50000000000003 94.500000000000014 337.50000000000006 116.50000000000001 201.50000000000003 86.500000000000014 385.50000000000006 291.50000000000006 128.50000000000003 167.50000000000003 33.985000000000007 83.035000000000011 78.575000000000003 4.5000000000000009 1.0000000180025095e-35 33.635000000000012 206.50000000000003 51.275000000000013 1.0000000180025095e-35 23.500000000000004 133.50000000000003 55.115000000000002 18.500000000000004 43.605000000000011 3.5000000000000004 49.500000000000007 164.50000000000003 22.500000000000004 51.500000000000007
decision_type=2 2 2 2 2 2 2 2 2 2 2 2 2 2 2 2 2 2 2 2 2 2 2 2 2 2 2 2 2 2
left_child=2 5 6 8 -4 10 -1 -5 14 -6 12 16 -2 -7 29 17 -10 21 20 -20 -19 -16 23 24 27 -21 28 -23 -17 -3
right_child=1 3 4 7 9 13 -8 -9 11 -11 -12 -13 -14 -15 15 26 -18 18 19 25 -22 22 -24 -25 -26 -27 -28 -29 -30 -31
leaf_value=-2.3744118365650224 -0.66851781523207809 1.2273229769370315 -1.6968269133381597 2.2033152279678818 -1.4982248172987049 0.16234518303018391 -1.8314166596640822 3.5573721268317371 1.045111174453291 -1.1669632488186765 -0.58862819309670866 1.7235441287608193 -1.2896755559405406 -0.41423141158821863 0.85726490898999685 -0.38509963101659683 -2.4008381181881746 1.0658725161213933 1.7353834296894739 -2.5786027383695611 -0.72490865574797425 -0.022711627418421188 -0.75584757318161955 -0.28825401463076616 3.0306474201632794 0.42362983131948262 2.6824405658995638 1.4604151923820361 0.96799795308620351 -1.0626586459956815
leaf_weight=4266 1659 736 2633 5621 1427 3672 950 13591 1399 2620 4141 3950 329 1168 2402 680 20 320 389 39 148 64 381 165 44 92 40 74 313 24
leaf_count=4266 1659 736 2633 5621 1427 3672 950 13591 1399 2620 4141 3950 329 1168 2402 680 20 320 389 39 148 64 381 165 44 92 40 74 313 24
internal_value=0 0.00807626 -0.0347007 0.0124656 -0.0246407 -0.00412526 -0.0475844 0.0152301 0.00775709 -0.0197307 -0.00762767 0.00993667 -0.0108149 0.000309917 0.00577736 0.00505727 0.00609584 0.00607091 0.00991903 0.0153846 0.00384615 0.00485623 0.000274725 0.00648415 0.0153846 -0.000381679 0.00101646 0.00942029 0.000151057 0.0106579
internal_weight=0 41461 11896 30492 6680 10969 5216 19212 11280 4047 6129 5369 1988 4840 5911 5151 1419 4118 988 520 468 3130 728 347 182 131 1033 138 993 760
internal_count=53357 41461 11896 30492 6680 10969 5216 19212 11280 4047 6129 5369 1988 4840 5911 5151 1419 4118 988 520 468 3130 728 347 182 131 1033 138 993 760
is_linear=0
shrinkage=0.05


Tree=13
num_leaves=31
num_cat=0
split_feature=0 0 0 0 0 0 0 0 0 0 0 0 10 2 11 11 11 2 0 12 2 2 8 11 8 12 13 10 2 12
split_gain=6235.71 845.012 605.019 116.384 94.2292 92.228 38.8582 16.6087 12.7786 11.8565 9.97814 8.7107 8.50848 8.09763 9.39128 7.67281 6.99645 6.90924 7.95108 7.75073 6.65836 6.48208 8.55034 11.1086 6.44511 6.42328 6.43235 7.28026 6.36925 7.10753
threshold=146.50000000000003 253.50000000000003 92.500000000000014 339.50000000000006 189.50000000000003 116.50000000000001 84.500000000000014 385.50000000000006 231.50000000000003 167.50000000000003 287.50000000000006 126.50000000000001 13.500000000000002 81.725000000000009 385.50000000000006 3.5000000000000004 321.50000000000006 76.77500000000002 173.50000000000003 90.928571428571445 23.845000000000002 97.985000000000014 11.500000000000002 61.500000000000007 10.500000000000002 60.642857142857146 1.0000000180025095e-35 50.500000000000007 54.485000000000007 189.50000000000003
decision_type=2 2 2 2 2 2 2 2 2 2 2 2 2 2 2 2 2 2 2 2 2 2 2 2 2 2 2 2 2 2
left_child=2 4 6 10 9 -4 -1 -5 -6 13 25 15 17 14 -2 -7 -15 18 -11 -20 -12 -9 -23 -24 -17 -3 27 -27 -21 -30
right_child=1 3 5 7 8 11 -8 21 -10 12 20 -13 -14 16 -16 24 -18 -19 19 28 -22 22 23 -25 -26 26 -28 -29 29 -31
leaf_value=-2.2556912447367714 -0.68137708378144846 -1.1565936619717305 -1.5891427466549382 2.1226354920310841 -0.11218096548902068 0.30554745665271033 -1.6674673062387428 3.348519208144447 0.35409747785068646 -1.1754508854487333 1.016730236256153 -1.1568859079397822 -0.69915117831518581 -1.3947278147157798 -1.1908848537033236 -1.4378554279962701 0.23726703051290274 0.32302515847692564 1.4056456520273615 0.14115487997961154 1.4970022331696839 4.4097781220526491 -2.4695704944470194 2.0938751684979624 -1.2898425363160393 0.89250112758086719 0.40820221709723725 -1.1357289075606929 -1.166537341523074 0.81899835442303337
leaf_weight=4067 1890 73 2857 5423 5203 23 991 13233 2577 144 943 2332 2013 428 71 405 49 191 40 232 5185 107 70 113 808 3057 788 54 105 22
leaf_count=4067 1890 73 2857 5423 5203 23 991 13233 2577 144 943 2332 2013 428 71 405 49 191 40 232 5185 107 70 113 808 3057 788 54 105 22
internal_value=0 0.00733974 -0.0342376 0.0120774 -0.0032742 -0.0240545 -0.0471728 0.0143883 0.000205656 -0.00849566 0.00774257 -0.0186939 -0.00624317 -0.0110336 -0.00961244 -0.0220874 -0.0168763 -0.00163488 -0.00451197 -0.000877193 0.00900783 0.0153257 0.00793103 0.00136612 -0.0226298 0.00579053 0.00606566 0.00708775 -0.00320334 -0.0122047
internal_weight=0 42011 11483 29046 12965 6425 5058 18946 7780 5185 10100 3568 2747 2438 1961 1236 477 734 543 399 6128 13523 290 183 1213 3972 3899 3111 359 127
internal_count=53494 42011 11483 29046 12965 6425 5058 18946 7780 5185 10100 3568 2747 2438 1961 1236 477 734 543 399 6128 13523 290 183 1213 3972 3899 3111 359 127
is_linear=0
shrinkage=0.05


Tree=14
num_leaves=31
num_cat=0
split_feature=0 0 0 0 0 0 0 0 0 0 5 10 0 5 8 0 1 1 5 11 0 12 3 11 11 2 12 1 5 9
split_gain=5855.73 851.794 584.974 101.786 89.4378 77.0647 52.3964 13.9472 13.7324 12.2339 14.7272 11.9957 11.2093 10.9829 11.4384 10.8818 9.15372 8.67117 8.30266 8.32341 8.31494 8.19551 7.4162 7.32013 9.26125 8.29493 8.8657 7.54577 7.09536 6.99557
threshold=144.50000000000003 253.50000000000003 92.500000000000014 195.50000000000003 339.50000000000006 112.50000000000001 80.500000000000014 273.50000000000006 442.50000000000006 171.50000000000003 82.675000000000026 13.500000000000002 221.50000000000003 22.735000000000003 8.5000000000000018 126.50000000000001 57.500000000000007 51.500000000000007 61.635000000000012 417.50000000000006 497.50000000000006 181.6428571428572 12.500000000000002 36.500000000000007 21.500000000000004 35.755000000000003 66.785714285714292 181.50000000000003 87.235000000000014 3.5000000000000004
decision_type=2 2 2 2 2 2 2 2 2 2 2 2 2 2 2 2 2 2 2 2 2 2 2 2 2 2 2 2 2 2
left_child=2 3 6 9 7 -4 -1 23 -6 10 21 -11 17 14 22 -7 -16 -5 19 20 -10 -2 -13 24 25 -3 -27 -25 -17 -26
right_child=1 4 5 12 8 15 -8 -9 18 11 -12 13 -14 -15 16 28 -18 -19 -20 -21 -22 -23 -24 27 29 26 -28 -29 -30 -31
leaf_value=-2.1966536137011055 -0.57504123895939185 -1.1300640243484956 -1.5702773678182844 0.4873783273425083 2.4220357849398946 -1.3188214496179675 -1.6494676382698807 1.3702278457369226 4.1202455886067852 -0.065188599446920389 -1.1852014628835292 -0.55596305335517615 0.2988184008712409 -0.8559630533551762 -0.73581584522775079 -1.1466212071377293 0.60088789493157757 -0.30642989105511909 3.2341027739507782 -0.1164627877645458 2.021126021671698 -0.88109217821782559 -2.6187354709619273 0.64112239120648484 -1.6934456808304768 -1.6924824704815196 1.8354633491015158 1.7096879001795644 -0.93208314174513029 0.10047145980189427
leaf_weight=3560 2248 62 2345 565 12172 1711 1445 7810 3646 797 583 43 3848 1821 53 1782 186 2638 2970 58 205 378 29 1731 111 21 196 201 312 79
leaf_count=3560 2248 62 2345 565 12172 1711 1445 7810 3646 797 583 43 3848 1821 53 1782 186 2638 2970 58 205 378 29 1731 111 21 196 201 312 79
internal_value=0 0.00699748 -0.0337113 -0.0035522 0.0117524 -0.0233821 -0.0464036 0.00797669 0.0137762 -0.00826002 -0.0103926 -0.00592352 0.000546022 -0.00787992 0.000803859 -0.0189882 0.00606695 -0.00163909 0.0155619 0.017076 0.0173591 -0.00879665 -0.0166667 0.0046439 -0.000959488 0.00483871 0.009447 0.00600414 -0.0165712 -0.00947368
internal_weight=0 42451 11155 13189 29262 6150 5005 10211 19051 6138 3209 2929 7051 2132 311 3805 239 3203 6879 3909 3851 2626 72 2401 469 279 217 1932 2094 190
internal_count=53606 42451 11155 13189 29262 6150 5005 10211 19051 6138 3209 2929 7051 2132 311 3805 239 3203 6879 3909 3851 2626 72 2401 469 279 217 1932 2094 190
is_linear=0
shrinkage=0.05


Tree=15
num_leaves=31
num_cat=0
split_feature=2 6 14 2 11 14 11 1 11 8 1 1 23 14 1 1 1 11 11 18 1 17 8 11 1 11 10 10 10 11
split_gain=3.48796 7.60672 7.65032 7.05101 9.59894 7.29654 7.97668 7.10732 10.9662 6.52713 6.35351 11.2736 6.28269 6.75289 6.65268 6.19674 5.35142 4.99955 4.6679 4.41507 4.57251 4.11909 4.39935 3.62143 3.42238 3.37712 3.19438 3.00837 9.03895 8.47889
threshold=99.345000000000013 2022.5000000000002 1.0000000180025095e-35 98.345000000000013 14.500000000000002 1.0000000180025095e-35 116.50000000000001 46.500000000000007 79.500000000000014 10.500000000000002 129.50000000000003 82.500000000000014 1.0000000180025095e-35 1.0000000180025095e-35 49.500000000000007 94.500000000000014 173.50000000000003 6.5000000000000009 192.50000000000003 1.0000000180025095e-35 80.500000000000014 1.0000000180025095e-35 14.500000000000002 100.50000000000001 116.50000000000001 174.50000000000003 34.500000000000007 35.500000000000007 23.500000000000004 224.50000000000003
decision_type=2 2 2 2 2 2 2 2 2 2 2 2 2 2 2 2 2 2 2 2 2 2 2 2 2 2 2 2 2 2
left_child=3 12 15 27 17 6 7 -6 19 24 11 -7 13 14 -2 -3 -16 -5 -17 20 -9 22 -22 -14 -8 -12 -11 28 -1 -29
right_child=1 2 -4 4 5 10 9 8 -10 26 25 -13 23 -15 16 18 -18 -19 -20 -21 21 -23 -24 -25 -26 -27 -28 29 -30 -31
leaf_value=-0.22381728836902967 2.1730120178889996 -1.5904682338400526 -2.2726726199530893 -1.2185539358904629 0.45195308478134993 2.1099550548642525 -1.5821247226381006 0.48984803143571121 -1.6461005488174472 1.2912437523157003 4.2647984143980775 -1.5404779730954301 -0.69228846476801786 3.3181192447097092 -1.0854797325530576 1.9145472318555541 0.18901584699868401 -1.9330740018148782 -1.5278133372933191 0.27462730196122787 -2.8331654142188007 -1.3227840181444457 -2.5074222286995695 0.89090577410712057 -0.025745591990336436 0.59061365092615936 -0.21565356482467735 -0.3196203376247283 -0.039630039583432364 0.019454987849069738
leaf_weight=25317 24 56 36 23 38 39 43 24 55 94 24 30 28 29 83 69 24 27 25 26 28 35 25 20 37 23 43 11194 13175 2978
leaf_count=25317 24 56 36 23 38 39 43 24 55 94 24 30 28 29 83 69 24 27 25 26 28 35 25 20 37 23 43 11194 13175 2978
internal_value=0 0.00304569 -0.00430108 -0.00167611 -0.00700326 -0.00514184 -0.00803571 -0.0145022 -0.0183938 -0.00115207 0.00603448 -0.00362319 0.00961538 0.014375 0.00954198 0.000666667 0.00420561 -0.028 0.00851064 -0.0108696 -0.0151786 -0.0204545 -0.0292453 -0.00625 -0.0125 0.0202128 0.00547445 -0.00161401 -0.0013847 -0.0022368
internal_weight=0 394 186 53278 614 564 448 231 193 217 116 69 208 160 131 150 107 50 94 138 112 88 53 48 80 47 137 52664 38492 14172
internal_count=53672 394 186 53278 614 564 448 231 193 217 116 69 208 160 131 150 107 50 94 138 112 88 53 48 80 47 137 52664 38492 14172
is_linear=0
shrinkage=0.05


Tree=16
num_leaves=31
num_cat=0
split_feature=0 0 0 0 0 0 0 0 0 0 2 0 0 11 7 12 8 12 12 12 11 14 2 12 12 8 0 1 3 12
split_gain=5367.64 805.073 618.728 105.774 81.3492 61.8057 60.649 15.7928 12.9081 12.0657 9.93926 12.4825 9.1013 8.31594 7.89095 7.5579 7.40305 7.92111 7.22094 8.42586 6.925 6.89217 13.1934 9.75097 8.91822 8.78961 7.86327 7.40696 7.43199 9.63252
threshold=156.50000000000003 90.500000000000014 273.50000000000006 120.50000000000001 217.50000000000003 80.500000000000014 339.50000000000006 106.50000000000001 187.50000000000003 452.50000000000006 62.245000000000012 497.50000000000006 132.50000000000003 10.500000000000002 2.5000000000000004 145.6428571428572 29.500000000000004 113.35714285714288 79.357142857142875 77.214285714285737 405.50000000000006 1.0000000180025095e-35 29.285000000000004 153.21428571428575 202.35714285714286 16.500000000000004 241.50000000000003 154.50000000000003 7.5000000000000009 119.07142857142858
decision_type=2 2 2 2 2 2 2 2 2 2 2 2 2 2 2 2 2 2 2 2 2 2 2 2 2 2 2 2 2 2
left_child=1 5 4 7 8 -1 -4 -3 18 13 11 20 -5 -8 -13 -16 -9 -18 19 -2 -11 26 23 27 -24 -26 -6 28 29 -23
right_child=2 3 6 12 21 -7 9 16 -10 10 -12 14 -14 -15 15 -17 17 -19 -20 -21 -22 22 24 -25 25 -27 -28 -29 -30 -31
leaf_value=-2.057148890726737 -0.23449827448230601 -1.5428212199095108 1.1884287382768957 -1.1098641131981897 0.21436683015481323 -1.5932314354219572 1.6364605050581702 -1.2975744356072281 -0.2972319944040866 4.2399782844637715 3.114622576417776 -1.3306206924506825 -0.98224886620541563 2.4489988051372324 0.43128560464100762 6.7191223258417168 0.18237555458791732 -1.6683931098958469 -0.64996143388595484 1.1364032895701102 0.47670827192468723 1.1747289266068621 -0.47065603579556559 1.9931905660515832 3.0587398240128945 -0.62070576550390522 0.72350983458132279 -0.79325425584682641 1.0958312790624554 -1.9634666072099236
leaf_weight=3632 220 1899 7738 1400 2376 1204 773 1630 3640 2961 2406 27 2863 12644 103 62 33 57 3500 27 64 33 924 101 31 34 3069 61 87 29
leaf_count=3632 220 1899 7738 1400 2376 1204 773 1630 3640 2961 2406 27 2863 12644 103 62 33 57 3500 27 64 33 924 101 31 34 3069 61 87 29
internal_value=0 -0.0298868 0.00730384 -0.020033 -0.00116049 -0.0459471 0.0117709 -0.0263194 -0.00478543 0.0132878 0.0152321 0.01705 -0.0146962 0.012473 0.0046875 0.00878788 -0.0228488 -0.00888889 -0.00684548 0.001417 0.0178347 0.00280949 -0.000461538 0.0085209 -0.00328615 0.0146154 0.00359045 0.00238095 0.00838926 -0.00483871
internal_weight=0 12718 40910 7882 14132 4836 26778 3619 7387 19040 5623 3217 4263 13417 192 165 1720 90 3747 247 3025 6745 1300 311 989 65 5445 210 149 62
internal_count=53628 12718 40910 7882 14132 4836 26778 3619 7387 19040 5623 3217 4263 13417 192 165 1720 90 3747 247 3025 6745 1300 311 989 65 5445 210 149 62
is_linear=0
shrinkage=0.05


Tree=17
num_leaves=31
num_cat=0
split_feature=0 0 0 0 0 0 0 0 0 0 2 5 7 1 2 5 11 10 5 5 11 5 0 3 1 10 5 5 2 11
split_gain=5045.59 693.5 609.991 112.201 106.231 42.837 22.9212 21.686 15.2551 11.606 9.30952 8.67321 7.82202 8.07552 7.80375 9.56889 7.22588 9.43579 7.04715 8.36766 6.61277 6.53571 7.69627 6.51871 6.48 6.31191 9.69426 6.82715 8.9577 6.27947
threshold=150.50000000000003 82.500000000000014 241.50000000000003 112.50000000000001 369.50000000000006 201.50000000000003 287.50000000000006 74.500000000000014 126.50000000000001 94.500000000000014 10.725000000000003 102.49500000000002 11.500000000000002 199.50000000000003 35.015000000000008 42.175000000000004 39.500000000000007 2.5000000000000004 78.575000000000003 71.365000000000023 31.500000000000004 21.235000000000003 171.50000000000003 7.5000000000000009 110.50000000000001 25.500000000000004 91.985000000000014 100.56500000000001 97.985000000000014 328.50000000000006
decision_type=2 2 2 2 2 2 2 2 2 2 2 2 2 2 2 2 2 2 2 2 2 2 2 2 2 2 2 2 2 2
left_child=1 7 5 9 6 21 16 -1 -5 -3 -10 -8 13 25 -12 -16 17 -4 19 -7 -19 22 -2 -15 -13 27 -27 -6 -29 -14
right_child=2 3 4 8 12 18 11 -9 10 -11 14 24 29 23 15 -17 -18 20 -20 -21 -22 -23 -24 -25 -26 26 -28 28 -30 -31
leaf_value=-2.0267711986222401 -0.69455587206213887 -1.4091445228404789 1.2212602124768914 -1.1685180289396164 2.7223230576110198 0.016257788942998987 1.424420629099582 -1.6166774383640452 0.46868585717392758 -1.3664503847344649 -1.3535767054060566 -1.2301496236058391 2.4206631942492844 5.9399739154273865 -0.32268637277250178 -0.94219519638738025 0.70607276811552822 0.57177559428910774 -0.34365815218212037 0.77534728283954668 -0.9998306531895349 -0.55925487797937523 0.11796961445168819 2.9802868185049505 0.40427545395613723 2.878694022116838 3.7501505800557613 -2.9844431103273901 3.0406947994689513 -1.9205856121303584
leaf_weight=2948 326 1438 40 1712 7873 3305 9562 901 26 2150 761 25 664 37 242 1774 4272 888 1194 378 204 5327 487 48 25 6128 595 28 46 47
leaf_count=2948 326 1438 40 1712 7873 3305 9562 901 26 2150 761 25 664 37 242 1774 4272 888 1194 378 204 5327 487 48 25 6128 595 28 46 47
internal_value=0 -0.0302125 0.00665679 -0.0219116 0.0103012 -0.00342652 0.00730554 -0.0476877 -0.0166667 -0.0285117 -0.0143953 0.00877029 0.0132096 0.0134565 -0.0146741 -0.0130456 0.00470022 0.00114841 7.17654e-05 0.00115395 0.000274725 -0.00620521 -0.00202952 0.0288235 -0.012 0.0133674 0.014495 0.0124135 -0.0027027 0.0080872
internal_weight=0 11952 41499 8103 30482 11017 15016 3849 4515 3588 2803 9612 15466 14755 2777 2016 5404 1132 4877 3683 1092 6140 813 85 50 14670 6723 7947 74 711
internal_count=53451 11952 41499 8103 30482 11017 15016 3849 4515 3588 2803 9612 15466 14755 2777 2016 5404 1132 4877 3683 1092 6140 813 85 50 14670 6723 7947 74 711
is_linear=0
shrinkage=0.05


Tree=18
num_leaves=31
num_cat=0
split_feature=0 0 0 0 0 0 0 0 0 12 0 2 7 9 5 2 2 12 12 10 1 2 9 10 10 0 2 10 2 12
split_gain=4730.55 660.741 575.434 94.0729 70.8563 59.6417 48.7054 22.705 21.3071 8.95818 7.87667 7.72823 7.54789 7.40181 7.10624 7.22802 7.03609 6.99148 7.73742 6.93391 7.2378 6.46961 6.59336 7.15617 6.40092 6.22471 6.04922 6.11087 7.14336 6.1356
threshold=138.50000000000003 241.50000000000003 86.500000000000014 309.50000000000006 201.50000000000003 106.50000000000001 74.500000000000014 167.50000000000003 387.50000000000006 239.6428571428572 126.50000000000001 14.905000000000003 11.500000000000002 5.5000000000000009 83.035000000000011 99.345000000000013 10.725000000000003 142.92857142857147 80.357142857142875 11.500000000000002 72.500000000000014 91.055000000000021 1.5000000000000002 26.500000000000004 20.500000000000004 142.50000000000003 99.345000000000013 13.500000000000002 20.515000000000004 171.7571428571429
decision_type=2 2 2 2 2 2 2 2 2 2 2 2 2 2 2 2 2 2 2 2 2 2 2 2 2 2 2 2 2 2
left_child=2 4 6 -3 7 -4 -1 11 -5 10 -7 16 -10 -6 19 -16 -2 18 -15 20 -13 -12 -23 -24 -19 -18 27 29 -29 -9
right_child=1 3 5 8 13 9 -8 26 12 -11 21 14 -14 17 15 -17 25 24 -20 -21 -22 22 23 -25 -26 -27 -28 28 -30 -31
leaf_value=-1.9297803507393518 0.24411924472900781 0.66151540001654974 -1.3973248634750772 1.5230385899825529 -0.022729671640890816 -1.1998863488055556 -1.4881590447396524 -0.31262448011168548 2.7913751436794714 0.20678285292973336 -1.0672599952167374 -0.41167163255456463 2.3279563225734479 -0.35016558886899318 -1.070827856940032 0.3499466349436503 -2.4768608449523679 0.53770075944594209 1.0155629957395935 -0.53475477457463583 -0.91039165038893799 -1.3503979666157826 0.47460866305702115 -1.0583791055923768 -0.85942725426394384 -1.3323827663950238 0.89944354522424208 0.026189304380100965 -0.59706095611762888 0.50911399388415612
leaf_weight=2920 31 7987 2388 9220 4161 2399 1400 895 12763 42 1258 169 617 66 594 24 27 114 340 2040 426 40 53 48 181 126 33 381 2633 246
leaf_count=2920 31 7987 2388 9220 4161 2399 1400 895 12763 42 1258 169 617 66 594 24 27 114 340 2040 426 40 53 48 181 126 33 381 2633 246
internal_value=0 0.00557181 -0.031788 0.00952856 -0.00412029 -0.0220617 -0.0458102 -0.00712787 0.011177 -0.0182031 -0.0184571 -0.0101397 0.0124514 0.000596462 -0.00957578 -0.0144013 -0.0201087 0.0053495 0.00960591 -0.00844402 -0.0131933 -0.0154753 -0.00531915 0.00148515 -0.000508475 -0.0245098 -0.00465616 -0.00482551 -0.00600531 -0.00170903
internal_weight=0 43074 10548 30587 12487 6228 4320 7625 22600 3840 3798 3437 13380 4862 3253 618 184 701 406 2635 595 1399 141 101 295 153 4188 4155 3014 1141
internal_count=53622 43074 10548 30587 12487 6228 4320 7625 22600 3840 3798 3437 13380 4862 3253 618 184 701 406 2635 595 1399 141 101 295 153 4188 4155 3014 1141
is_linear=0
shrinkage=0.05


Tree=19
num_leaves=31
num_cat=0
split_feature=0 0 0 0 0 0 0 0 0 0 7 19 1 0 10 1 2 5 3 10 2 2 5 5 5 0 5 5 10 5
split_gain=4299.57 608.995 605.344 79.1751 73.1738 63.928 37.9217 19.5989 9.68895 9.55273 8.67574 7.50743 9.87474 8.23529 8.55463 7.15334 11.9767 7.45921 8.40438 7.14818 8.14467 7.02119 9.71655 8.09075 12.2215 7.46068 12.1978 6.95479 6.60163 6.26239
threshold=138.50000000000003 82.500000000000014 253.50000000000003 195.50000000000003 377.50000000000006 104.50000000000001 74.500000000000014 309.50000000000006 116.50000000000001 156.50000000000003 11.500000000000002 1.0000000180025095e-35 56.500000000000007 217.50000000000003 49.500000000000007 103.50000000000001 96.245000000000019 95.465000000000018 12.500000000000002 36.500000000000007 86.515000000000015 14.555000000000001 17.215000000000003 26.015000000000004 41.165000000000006 369.50000000000006 38.965000000000011 45.705000000000005 1.5000000000000002 86.845000000000013
decision_type=2 2 2 2 2 2 2 2 2 2 2 2 2 2 2 2 2 2 2 2 2 2 2 2 2 2 2 2 2 2
left_child=1 6 3 9 7 -3 -1 15 -7 -2 -6 13 -13 -5 -15 16 -4 -18 -19 -11 -21 22 -9 -23 25 -25 -27 -26 -17 -29
right_child=2 5 4 11 10 8 -8 21 -10 19 -12 12 -14 14 -16 28 17 18 -20 20 -22 23 -24 24 27 26 -28 29 -30 -31
leaf_value=-1.8794996153049022 -0.6828900527162759 -1.2534957308303554 0.61735027644002471 -0.12496463420323992 2.566952361396075 -1.151245088124967 -1.4375350827066855 0.67790417818147264 -0.98067929342421545 -0.41331237114271246 2.0336125821847868 -0.8384085989787281 -0.024695099213135664 0.45966605393273885 -0.87358784054316596 2.3483852233873876 -2.0065699373282619 0.88619033072460951 -2.2120099768503438 -0.61348742960355374 -1.4730101548952146 2.1679275847052195 -2.3840699152947806 0.72272747564825723 2.130636291702976 0.011966722141062293 -3.0044336398769804 1.3600001672493101 0.82969071438962416 1.7366313832769293
leaf_weight=2908 2159 2649 2927 2025 13890 1457 901 359 2669 3609 662 361 1404 3114 122 79 39 67 37 942 188 999 21 1195 449 136 25 3616 3423 1188
leaf_count=2908 2159 2649 2927 2025 13890 1457 901 359 2669 3609 662 361 1404 3114 122 79 39 67 37 942 188 999 21 1195 449 136 25 3616 3423 1188
internal_value=0 -0.0300926 0.00547913 -0.00309537 0.00958024 -0.0210996 -0.0460882 0.00707418 -0.0172079 -0.00690055 0.0120877 0.000640478 -0.0021813 0.00158715 0.00315204 0.00505173 0.0032899 -0.0108392 -0.00384615 -0.00564465 -0.00911504 0.00873811 0.00210526 0.0090694 0.00843547 0.00420354 -0.00590062 0.00952789 0.00659623 0.00897169
internal_weight=0 10584 43036 13924 29112 6775 3809 14560 4126 6898 14552 7026 1765 5261 3236 6572 3070 143 104 4739 1130 7988 380 7608 6609 1356 161 5253 3502 4804
internal_count=53620 10584 43036 13924 29112 6775 3809 14560 4126 6898 14552 7026 1765 5261 3236 6572 3070 143 104 4739 1130 7988 380 7608 6609 1356 161 5253 3502 4804
is_linear=0
shrinkage=0.05


Tree=20
num_leaves=31
num_cat=0
split_feature=10 10 22 5 8 25 7 16 1 1 3 5 5 1 5 1 1 1 22 19 5 10 5 1 10 5 3 5 8 1
split_gain=5.16244 6.86195 7.15527 6.92373 6.78411 6.44752 11.3092 9.30757 7.0568 12.9111 6.41745 8.0684 6.22814 7.3003 6.55156 5.11621 5.72566 6.72696 7.02707 6.65824 5.28151 11.3233 8.36348 8.1522 7.23651 6.59864 6.11852 5.94037 5.44757 7.225
threshold=23.500000000000004 31.500000000000004 1.0000000180025095e-35 10.935 7.5000000000000009 1.0000000180025095e-35 7.5000000000000009 1.0000000180025095e-35 28.500000000000004 30.500000000000004 7.5000000000000009 102.49500000000002 7.6450000000000005 111.50000000000001 8.7550000000000008 23.500000000000004 116.50000000000001 103.50000000000001 1.0000000180025095e-35 1.0000000180025095e-35 49.935000000000009 21.500000000000004 19.405000000000005 143.50000000000003 16.500000000000004 51.635000000000012 1.0000000180025095e-35 99.885000000000005 5.5000000000000009 161.50000000000003
decision_type=2 2 2 2 2 2 2 2 2 2 2 2 2 2 2 2 2 2 2 2 2 2 2 2 2 2 2 2 2 2
left_child=10 3 5 4 -2 6 7 -3 -7 -10 12 -12 13 -1 -14 -16 17 -17 -19 -20 21 -18 -23 -24 26 -26 -22 28 29 -28
right_child=1 2 -4 -5 -6 8 -8 -9 9 -11 11 -13 14 -15 15 16 20 18 19 -21 24 22 23 -25 25 -27 27 -29 -30 -31
leaf_value=-2.8084530200276632 -0.49647740103133775 1.573074940577962 -0.0071785025956877749 -0.017481321780001481 1.2537725360834373 1.0838038114181028 -0.31034850966415278 -0.84946892035344668 -2.3766944416302898 -0.05832854124501239 -0.15503529726460671 -1.2322312728500724 1.6640512251079878 -0.16019812365496833 -1.0687858448701264 -0.24086231455773657 -0.47624129437552232 -0.0019915848284032477 1.4995380268541212 -0.98829792545382422 -0.1453537111228286 0.56658477857098222 -0.51564687063653847 -2.5411047863107363 1.7845424631958666 0.0061946721346437528 1.1457001531737856 -3.2637050927538036 -0.74347171099021847 -1.1578092452915214
leaf_weight=23 50 115 4807 8763 131 144 10259 20 39 3353 15434 52 35 20 214 4422 1868 564 128 39 954 26 48 97 28 807 80 26 802 80
leaf_count=23 50 115 4807 8763 131 144 10259 20 39 3353 15434 52 35 20 214 4422 1868 564 128 39 954 26 48 97 28 807 80 26 802 80
internal_value=0 -0.00115061 -0.00169451 -1.11807e-05 0.00966851 -0.00226849 -0.0028959 0.0114815 -0.000424208 -0.000884434 -0.00213423 -0.00149167 -0.00310399 -0.022093 -0.00302408 -0.0030983 -0.0029341 -0.00177566 0.00266758 0.0116766 -0.00417359 -0.00610593 -0.0184211 -0.0231034 -0.00275477 0.00113772 -0.00442842 -0.00718623 -0.00654886 0.001875
internal_weight=0 27681 18737 8944 181 13930 10394 135 3536 3392 25747 15486 10261 43 10218 10183 9969 5153 731 167 4816 2039 171 145 2777 835 1942 988 962 160
internal_count=53428 27681 18737 8944 181 13930 10394 135 3536 3392 25747 15486 10261 43 10218 10183 9969 5153 731 167 4816 2039 171 145 2777 835 1942 988 962 160
is_linear=0
shrinkage=0.05


Tree=21
num_leaves=31
num_cat=0
split_feature=12 1 24 8 14 8 9 2 1 3 7 11 11 11 2 22 2 12 7 12 1 1 1 19 8 11 12 10 1 11
split_gain=5.39482 6.22022 7.00739 6.80977 5.97338 4.77742 5.06288 6.82611 6.4551 5.4517 5.50476 4.48889 5.17927 4.3883 4.22274 3.94366 9.7407 7.00486 7.54132 5.02703 7.04545 4.88543 3.57715 3.47974 5.50016 4.83682 6.59879 3.42857 3.3 3.28943
threshold=54.75714285714286 184.50000000000003 1.0000000180025095e-35 23.500000000000004 1.0000000180025095e-35 30.500000000000004 1.0000000180025095e-35 43.885000000000012 164.50000000000003 7.5000000000000009 6.5000000000000009 107.50000000000001 89.500000000000014 56.500000000000007 88.605000000000004 1.0000000180025095e-35 57.945000000000007 97.071428571428584 4.5000000000000009 133.07142857142858 144.50000000000003 103.50000000000001 97.500000000000014 1.0000000180025095e-35 23.500000000000004 39.500000000000007 44.464285714285722 24.500000000000004 105.50000000000001 23.500000000000004
decision_type=2 2 2 2 2 2 2 2 2 2 2 2 2 2 2 2 2 2 2 2 2 2 2 2 2 2 2 2 2 2
left_child=1 2 3 11 -5 -2 7 8 -7 -9 -11 12 14 29 -1 -8 17 -17 -19 -18 -21 -20 -16 24 25 26 -4 -28 -25 -3
right_child=5 13 23 4 -6 6 15 9 -10 10 -12 -13 -14 -15 22 16 19 18 21 20 -22 -23 -24 28 -26 -27 27 -29 -30 -31
leaf_value=-0.55802551088834496 -0.14594471848587318 -0.96596972494016031 -1.3247922652559616 1.2176032837148143 -2.007004559659908 0.4180341040057336 -0.86688025218833509 1.0460007509740223 2.5357753531039764 -0.95635939453040963 -0.28198599238250427 -1.557252158618506 0.89338421266196666 -0.43516320650042389 -1.0360071026070004 1.4342387176620228 0.97993361684207658 -1.8526795987730751 -1.3885896524373036 -0.87265530836549277 2.1788040368560924 1.1989956935682302 3.083949229932879 -1.4240006726988719 -1.9636247048249453 -1.049437678315714 3.4071605631310846 0.28179269366140647 -2.7180833540660618 -3.2450981898680364
leaf_weight=293 51875 21 26 67 21 62 592 62 22 24 60 24 21 21 20 20 49 24 30 40 22 33 23 20 28 40 21 21 24 20
leaf_count=293 51875 21 26 67 21 62 592 62 22 24 60 24 21 21 20 20 49 24 30 40 22 33 23 20 28 40 21 21 24 20
internal_value=0 -0.00583685 -0.00439137 -0.00117271 0.0113636 -0.00145233 -0.00480769 0.00173913 0.0130952 -0.00479452 -0.0130952 -0.00406824 -0.00266106 -0.0209677 -0.00416667 -0.00666667 -0.000917431 -0.0116822 -0.0178161 0.00945946 0 -0.00873016 0.0104651 -0.0127778 -0.00882353 -0.0037037 0.00441176 0.0166667 -0.025 -0.0304878
internal_weight=0 711 649 469 88 52915 1040 230 84 146 84 381 357 62 336 810 218 107 87 111 62 63 43 180 136 108 68 42 44 41
internal_count=53626 711 649 469 88 52915 1040 230 84 146 84 381 357 62 336 810 218 107 87 111 62 63 43 180 136 108 68 42 44 41
is_linear=0
shrinkage=0.05


Tree=22
num_leaves=31
num_cat=0
split_feature=0 0 0 0 0 0 0 0 0 0 1 11 0 3 1 5 11 7 5 1 8 0 8 1 1 3 5 21 1 7
split_gain=3983.56 590.751 546.552 84.3703 58.6373 53.1601 50.7718 26.7067 13.2672 11.4646 9.53292 10.8779 8.77602 11.3122 9.56577 8.53427 7.23954 7.08893 7.05816 6.90856 6.76621 6.73199 6.58349 20.4012 7.66215 7.17002 6.4739 7.58156 8.01099 6.46424
threshold=136.50000000000003 269.50000000000006 82.500000000000014 169.50000000000003 112.50000000000001 66.500000000000014 329.50000000000006 213.50000000000003 484.50000000000006 94.500000000000014 145.50000000000003 313.50000000000006 497.50000000000006 7.5000000000000009 87.500000000000014 40.045000000000009 39.500000000000007 1.5000000000000002 84.435000000000016 193.50000000000003 9.5000000000000018 74.500000000000014 2.5000000000000004 91.500000000000014 151.50000000000003 7.5000000000000009 92.685000000000016 1.0000000180025095e-35 100.50000000000001 7.5000000000000009
decision_type=2 2 2 2 2 2 2 2 2 2 2 2 2 2 2 2 2 2 2 2 2 2 2 2 2 2 2 2 2 2
left_child=2 3 5 19 9 -1 22 -5 -8 16 -11 17 -10 15 -15 -14 -4 -12 -17 -2 29 -7 23 25 -25 -3 -18 28 -28 -6
right_child=1 6 4 7 20 21 8 -9 12 10 11 -13 13 14 -16 18 26 -19 -20 -21 -22 -23 -24 24 -26 -27 27 -29 -30 -31
leaf_value=-1.7752916497776903 -0.60686068724308306 -1.7602524599752301 -0.89133859634961154 -0.28835041693803592 -1.2618813578699282 -1.6100284584069122 2.0505328968476122 0.20708397611816418 3.9624696646323274 -1.2286523514934453 -0.1057322832419601 0.083720906599707948 -1.1289765117711319 0.20895788111160557 5.3653638573796663 2.3392237775586624 -1.3863228120360198 -0.97340573086742777 -1.6445953719796487 -0.87951424102947939 -0.90831844681620066 -1.331627899178556 0.83090613180501338 2.8781513765481712 1.8181832505693329 0.90711136224409761 -0.57969449137741691 0.18190543647798238 -1.6119601532012582 -0.86007327699204206
leaf_weight=1982 3800 69 306 5344 515 980 18331 6676 1533 1498 54 51 54 78 138 70 1027 552 22 155 2024 917 6620 134 138 111 36 25 42 300
leaf_count=1982 3800 69 306 5344 515 980 18331 6676 1533 1498 54 51 54 78 138 70 1027 552 22 155 2024 917 6620 134 138 111 36 25 42 300
internal_value=0 0.00528621 -0.0292996 -0.00235055 -0.0203577 -0.0441222 0.00975529 -0.000266223 0.0110304 -0.0246032 -0.022297 -0.0172755 0.0150132 0.00801105 0.0152778 -0.00273973 -0.0280641 -0.0191419 0.00652174 -0.00868521 -0.0149877 -0.0381392 0.0061086 0.0119469 0.0205882 -0.00111111 -0.0299115 -0.0179612 -0.025641 -0.0188344
internal_weight=0 43273 10309 15975 6430 3879 27298 12020 20226 3591 2155 657 1895 362 216 146 1436 606 92 3955 2839 1897 7072 452 272 180 1130 103 78 815
internal_count=53582 43273 10309 15975 6430 3879 27298 12020 20226 3591 2155 657 1895 362 216 146 1436 606 92 3955 2839 1897 7072 452 272 180 1130 103 78 815
is_linear=0
shrinkage=0.05


Tree=23
num_leaves=31
num_cat=0
split_feature=0 0 0 0 0 0 0 0 0 9 14 12 1 1 12 2 0 12 25 1 2 0 12 12 25 0 7 1 7 2
split_gain=3714.45 606.365 440.086 89.3022 49.2418 44.8052 37.392 20.0504 8.0558 7.29398 6.83621 6.62375 12.2637 6.70342 6.58839 6.50251 6.14729 7.12207 8.01818 7.36766 5.71608 5.63439 9.25761 8.98547 8.69737 9.05357 6.23583 5.63033 5.62902 8.67952
threshold=126.50000000000001 223.50000000000003 80.500000000000014 309.50000000000006 66.500000000000014 167.50000000000003 104.50000000000001 383.50000000000006 205.50000000000003 2.5000000000000004 1.0000000180025095e-35 54.75714285714286 119.50000000000001 27.500000000000004 44.464285714285722 45.32500000000001 86.500000000000014 187.07142857142858 1.0000000180025095e-35 161.50000000000003 42.845000000000006 136.50000000000003 176.21428571428575 235.35714285714286 1.0000000180025095e-35 130.50000000000003 3.5000000000000004 187.50000000000003 2.5000000000000004 84.135000000000005
decision_type=2 2 2 2 2 2 2 2 2 2 2 2 2 2 2 2 2 2 2 2 2 2 2 2 2 2 2 2 2 2
left_child=2 5 4 11 -1 21 9 -5 -7 -4 -11 12 15 -13 -14 -3 -12 18 19 20 -18 22 28 26 -24 -26 27 -23 -2 -30
right_child=1 3 6 7 -6 8 -8 -9 -10 10 16 13 14 -15 -16 -17 17 -19 -20 -21 -22 23 24 -25 25 -27 -28 -29 29 -31
leaf_value=-1.673409551350356 -0.55567487432148188 3.7156458561962866 -1.271873232324503 1.2920436343190944 -1.4273813600542384 -0.35723668181360041 -0.98889168425145257 2.3470606315470852 -0.012400407701112927 -1.0986941806374571 -1.0083046708630519 -0.25414125065743853 -0.39333218463975861 0.63421291757222142 -3.4345274602156337 -0.83833720097827757 -1.1509236776419525 -1.1726616060317399 0.11961254291223399 0.25472991900963254 -0.64426496556197188 -0.64891950329385473 -0.60337678906131598 -0.93815867170028577 0.59389003684369546 -0.10375231955854645 -0.49577515918979104 -1.1615286089824211 -1.0748753222894576 -0.59283309295313491
leaf_weight=1942 170 23 1279 8695 1673 4625 2668 13960 2229 1300 87 408 22 9657 31 44 48 21 44 27 101 909 164 42 24 32 2575 92 628 144
leaf_count=1942 170 23 1279 8695 1673 4625 2668 13960 2229 1300 87 408 22 9657 31 44 48 21 44 27 101 909 164 42 24 32 2575 92 628 144
internal_value=0 0.00459145 -0.0303264 0.00806638 -0.0439142 -0.00521747 -0.0215157 0.00981461 -0.0026262 -0.0254386 -0.0232187 0.00417771 -0.0075 0.00431694 -0.0254717 0.00671642 -0.0167683 -0.0126556 -0.01 -0.0147727 -0.0191275 -0.00893305 -0.0119621 -0.0079602 -0.00272727 0.0142857 -0.00769016 -0.011039 -0.0141189 -0.0159326
internal_weight=0 44474 9190 32840 3615 11634 5575 22655 6854 2907 1628 10185 120 10065 53 67 328 241 220 176 149 4780 1162 3618 220 56 3576 1001 942 772
internal_count=53664 44474 9190 32840 3615 11634 5575 22655 6854 2907 1628 10185 120 10065 53 67 328 241 220 176 149 4780 1162 3618 220 56 3576 1001 942 772
is_linear=0
shrinkage=0.05


Tree=24
num_leaves=31
num_cat=0
split_feature=0 0 0 0 0 0 0 0 0 0 2 11 4 0 5 2 12 12 8 3 0 11 20 5 2 19 12 8 11 8
split_gain=3247.01 489.402 483.208 70.831 67.0619 59.2559 47.7204 14.6063 13.9858 12.0224 11.9153 8.07462 7.59056 7.34551 6.7503 6.7267 8.12321 19.3022 7.22824 7.08651 7.07151 6.51306 7.65076 6.50997 6.48779 6.31231 7.68424 7.05795 6.365 6.26123
threshold=132.50000000000003 253.50000000000003 76.500000000000014 173.50000000000003 339.50000000000006 106.50000000000001 64.500000000000014 82.500000000000014 469.50000000000006 217.50000000000003 18.305000000000003 22.500000000000004 1.0000000180025095e-35 387.50000000000006 101.40500000000002 97.985000000000014 169.35714285714286 184.6428571428572 10.500000000000002 17.500000000000004 401.50000000000006 54.500000000000007 1.0000000180025095e-35 9.6650000000000009 31.785000000000004 1.0000000180025095e-35 122.21428571428574 6.5000000000000009 351.50000000000006 26.500000000000004
decision_type=2 2 2 2 2 2 2 2 2 2 2 2 2 2 2 2 2 2 2 2 2 2 2 2 2 2 2 2 2 2
left_child=2 3 6 -2 -3 7 -1 -4 11 -5 12 15 -10 -13 -12 16 -6 18 -18 20 -19 22 -9 -14 -8 27 -27 28 -11 -25
right_child=1 4 5 9 8 -7 24 21 10 25 14 13 23 -15 -16 -17 17 19 -20 -21 -22 -23 -24 29 -26 26 -28 -29 -30 -31
leaf_value=-1.6335024544618204 -0.59014842116361022 0.72904596415015144 -1.2195365635964173 -0.21315160427328372 1.6889150462690723 -0.86694710003887965 -1.3506316852045146 -0.68459921565204673 6.6170501519666036 0.81798197580096577 2.6655530936874983 1.3658379558247178 6.8721060125795734 2.1661987629504034 -2.1025213911143426 -2.1361334069554454 1.2778065167552073 3.1521879770033054 -2.9449817133348404 6.7679851646489553 -2.5104323988916875 -1.1770930675878966 -1.0646562884281747 4.1710886038922599 -1.4252473596709594 -0.77701416224645081 0.26378304057726115 0.20995663439669202 -0.7134698305251661 -2.034928132916491
leaf_weight=1688 4831 10186 702 5408 1591 3067 367 592 154 621 3331 4980 21 8608 23 50 25 35 60 23 24 2088 194 119 1097 436 671 2631 27 26
leaf_count=1688 4831 10186 702 5408 1591 3067 367 592 154 621 3331 4980 21 8608 23 50 25 35 60 23 24 2088 194 119 1097 436 671 2631 27 26
internal_value=0 0.00440168 -0.0274375 -0.00306667 0.00813508 -0.0197877 -0.0435596 -0.0241611 0.00988464 -0.00062283 0.0126565 0.00922317 0.021875 0.00964086 0.011777 0.00608407 0.00659841 -0.00389222 -0.0205882 0.0134146 0.00423729 -0.0225818 -0.0187023 0.0144578 -0.0369536 0.00132239 -0.00194219 0.00242452 0.00709877 0.0106897
internal_weight=0 43881 9795 14625 29256 6643 3152 3576 19070 9794 3674 15396 320 13588 3354 1808 1758 167 85 82 59 2874 786 166 1464 4386 1107 3279 648 145
internal_count=53676 43881 9795 14625 29256 6643 3152 3576 19070 9794 3674 15396 320 13588 3354 1808 1758 167 85 82 59 2874 786 166 1464 4386 1107 3279 648 145
is_linear=0
shrinkage=0.05


Tree=25
num_leaves=31
num_cat=0
split_feature=0 0 0 0 0 0 0 0 0 7 21 2 5 0 5 2 14 0 8 2 2 12 5 0 9 5 5 12 2 5
split_gain=3162.85 515.835 446.151 64.6628 62.1968 50.6836 33.008 12.2735 10.2337 10.007 9.51241 9.09037 9.27528 7.60086 7.15963 8.12486 8.86331 13.2208 7.99805 6.97638 6.96136 7.59589 6.6629 6.63392 6.41894 6.35767 15.3636 6.80673 6.55819 13.805
threshold=128.50000000000003 241.50000000000003 76.500000000000014 339.50000000000006 175.50000000000003 64.500000000000014 90.500000000000014 471.50000000000006 205.50000000000003 8.5000000000000018 1.0000000180025095e-35 37.225000000000001 35.045000000000009 108.50000000000001 82.675000000000026 97.985000000000014 1.0000000180025095e-35 154.50000000000003 2.5000000000000004 84.465000000000018 18.305000000000003 185.35714285714286 99.885000000000005 271.50000000000006 5.5000000000000009 86.845000000000013 81.375000000000014 182.30952380952382 23.485000000000003 15.745000000000003
decision_type=2 2 2 2 2 2 2 2 2 2 2 2 2 2 2 2 2 2 2 2 2 2 2 2 2 2 2 2 2 2
left_child=2 4 5 10 11 -1 -4 -5 9 24 -3 -2 -13 -8 18 16 22 -18 -14 -20 21 -9 -16 -12 -6 26 27 28 29 -26
right_child=1 3 6 7 8 -7 13 20 -10 -11 23 12 14 -15 15 -17 17 -19 19 -21 -22 -23 -24 -25 25 -27 -28 -29 -30 -31
leaf_value=-1.594144954851527 -0.74831400887951538 0.75983068044610791 -1.0934116549127066 1.675399800459124 -0.081418644536505991 -1.3514184220061225 -0.98265419847332502 4.7662313725577761 0.055098134298044957 -0.65264930947851596 -0.17334687751870562 0.7582663881374615 -1.0398165930837842 -0.91587842755054261 -0.93808527995788826 0.053911836639624872 0.5011107308985665 -1.2038447180376437 -0.35607494174788529 1.2818020035073781 2.6333425730299953 -1.7325848542341902 -2.570189442448569 0.47607915479975776 -1.9837354712434128 -1.3718415916643463 1.6984104990850442 0.65049477626340468 -1.1233828541780688 1.3497174557149483
leaf_weight=1709 1721 8736 1630 15665 2251 1475 2186 260 4419 989 909 33 186 2415 714 124 117 79 2522 43 3092 27 27 1944 21 64 27 45 201 30
leaf_count=1709 1721 8736 1630 15665 2251 1475 2186 260 4419 989 909 33 186 2415 714 124 117 79 2522 43 3092 27 27 1944 21 64 27 45 201 30
internal_value=0 0.00411337 -0.0278014 0.00771227 -0.00398516 -0.0430276 -0.0200209 0.00950431 -0.00117435 -0.00314223 0.00476745 -0.00804887 -0.00669701 -0.0178548 -0.0069255 -0.0104147 -0.0120064 -0.00255102 -0.00557979 -0.0048538 0.0122373 0.0196864 -0.0145074 0.00226078 -0.00153467 -0.00747423 -0.00462963 -0.00791246 -0.0111111 0.00490196
internal_weight=0 44246 9415 30633 13613 3184 6231 19044 8047 3628 11589 5566 3845 4601 3812 1061 937 196 2751 2565 3379 287 741 2853 2639 388 324 297 252 51
internal_count=53661 44246 9415 30633 13613 3184 6231 19044 8047 3628 11589 5566 3845 4601 3812 1061 937 196 2751 2565 3379 287 741 2853 2639 388 324 297 252 51
is_linear=0
shrinkage=0.05


Tree=26
num_leaves=31
num_cat=0
split_feature=0 0 0 0 0 0 0 0 10 0 0 11 0 10 11 11 8 5 10 9 11 11 18 2 8 5 21 16 10 11
split_gain=2807.4 452.21 436.283 72.1172 47.1227 46.3779 35.3816 11.4348 10.5284 10.5005 9.41896 8.7188 7.16477 9.05731 9.68334 8.53303 7.08851 6.74972 6.62777 6.48624 10.6427 7.75947 7.93626 8.82247 10.9428 6.52807 6.41738 8.36038 7.40822 7.21679
threshold=128.50000000000003 74.500000000000014 221.50000000000003 339.50000000000006 106.50000000000001 62.500000000000007 156.50000000000003 273.50000000000006 48.500000000000007 80.500000000000014 417.50000000000006 10.500000000000002 195.50000000000003 5.5000000000000009 393.50000000000006 127.50000000000001 12.500000000000002 95.115000000000023 43.500000000000007 1.5000000000000002 303.50000000000006 282.50000000000006 1.0000000180025095e-35 81.035000000000011 11.500000000000002 78.905000000000015 1.0000000180025095e-35 1.0000000180025095e-35 14.500000000000002 366.50000000000006
decision_type=2 2 2 2 2 2 2 2 2 2 2 2 2 2 2 2 2 2 2 2 2 2 2 2 2 2 2 2 2 2
left_child=1 5 6 7 9 -1 19 -4 10 -3 11 -5 13 15 -15 -8 -14 26 -19 -2 21 22 -21 -24 -25 -22 28 -28 29 -12
right_child=2 4 3 8 -6 -7 12 -9 -10 -11 17 -13 16 14 -16 -17 -18 18 -20 20 25 -23 23 24 -26 -27 27 -29 -30 -31
leaf_value=-1.4300632633253596 -0.74201851085598569 -1.1000743617365523 0.32855379388845735 0.36945871974315453 -0.83120577864203327 -1.3009057846989842 0.47197312337734482 0.81469803085565151 0.7534914837588631 -0.99656858319967323 1.5680382485632407 1.4885270006702116 -0.30486221504273275 -0.35860497516833906 -1.0344842075872358 -0.3678862220091681 0.070652690336855534 1.4063659311375192 -1.4840895194954697 -0.63830323027816727 -1.0245869877233085 0.71372445956046993 0.051125210830030458 -1.5875538350455849 -0.31215546466487754 -0.033666123945839392 2.6774625880593521 3.6777685984950836 2.3191759224771227 -1.0597971151580978
leaf_weight=1472 980 675 6276 515 2647 1465 296 7764 839 3126 1869 8423 1260 4088 95 188 1881 483 31 1518 171 49 402 46 72 45 1790 451 4600 84
leaf_count=1472 980 675 6276 515 2647 1465 296 7764 839 3126 1869 8423 1260 4088 95 188 1881 483 31 1518 171 49 402 46 72 45 1790 451 4600 84
internal_value=0 -0.0261108 0.00399855 0.00687245 -0.0187035 -0.0423732 -0.0045848 0.00415242 0.00887346 -0.0222705 0.00912529 0.00796599 -0.00275359 -0.00399614 -0.0047454 0.00247934 -0.000907354 0.0102385 0.00466926 -0.00893999 -0.00749023 -0.00639674 -0.00686948 -0.00153846 -0.0135593 -0.0180556 0.010564 0.0128737 0.00977415 0.00719406
internal_weight=0 9385 44216 33125 6448 2937 11091 14040 19085 3801 18246 8938 7808 4667 4183 484 3141 9308 514 3283 2303 2087 2038 520 118 216 8794 2241 6553 1953
internal_count=53601 9385 44216 33125 6448 2937 11091 14040 19085 3801 18246 8938 7808 4667 4183 484 3141 9308 514 3283 2303 2087 2038 520 118 216 8794 2241 6553 1953
is_linear=0
shrinkage=0.05


Tree=27
num_leaves=31
num_cat=0
split_feature=0 0 0 0 0 0 0 0 0 14 8 1 12 3 7 10 5 1 11 3 0 5 8 12 12 3 8 1 11 12
split_gain=2660.61 418.211 395.648 51.3582 50.9693 50.1073 40.7163 13.8004 12.463 9.46768 7.60337 8.11497 7.09817 6.65673 6.48995 9.09934 7.12779 6.50353 8.85355 6.35651 6.24638 7.7464 10.0993 8.53518 8.4394 7.22011 10.6474 11.2406 8.15167 7.87757
threshold=128.50000000000003 249.50000000000003 72.500000000000014 195.50000000000003 100.50000000000001 62.500000000000007 347.50000000000006 82.500000000000014 154.50000000000003 1.0000000180025095e-35 1.5000000000000002 155.50000000000003 231.50000000000003 17.500000000000004 7.5000000000000009 29.500000000000004 65.855000000000004 82.500000000000014 6.5000000000000009 1.0000000180025095e-35 283.50000000000006 88.595000000000013 27.500000000000004 164.78571428571431 87.214285714285737 17.500000000000004 17.500000000000004 138.50000000000003 246.50000000000003 192.07142857142858
decision_type=2 2 2 2 2 2 2 2 2 2 2 2 2 2 2 2 2 2 2 2 2 2 2 2 2 2 2 2 2 2
left_child=2 3 5 8 7 -1 20 13 -2 14 11 -9 -6 -4 15 17 -17 18 -5 -11 21 23 24 -3 -23 26 -22 -28 -27 -30
right_child=1 6 4 9 12 -7 -8 10 -10 19 -12 -13 -14 -15 -16 16 -18 -19 -20 -21 25 22 -24 -25 -26 28 27 -29 29 -31
leaf_value=-1.4113429538515043 -0.57323588045136309 0.35068040803725681 -1.0565493398303387 -1.9545629708820575 -0.84421402852391558 -1.2101102789933451 1.7948727601092955 -0.86692553752057366 -0.32945573068369005 -1.0945650068079347 -0.95902191464304321 0.38072239574737171 0.097560737775009454 -1.2065084024561163 -0.13043789674993178 0.64157152211373336 1.8187498314362593 0.043989500678628703 0.6414186764442974 -0.1061118314476886 0.73115940366727872 -1.9568495859938573 2.0740313006630493 0.82347428712994031 -0.26271042777243497 0.25675208625772755 1.6585784153629675 0.57196036181058219 1.7645725124059297 -0.1526303231123258
leaf_weight=1481 3126 2611 932 24 3307 1204 18156 47 4907 261 2136 21 52 225 1939 86 71 2045 1106 991 3379 39 63 856 435 1279 1743 899 191 56
leaf_count=1481 3126 2611 932 24 3307 1204 18156 47 4907 261 2136 21 52 225 1939 86 71 2045 1106 991 3379 39 63 856 435 1279 1743 899 191 56
internal_value=0 0.00396155 -0.0253216 -0.00298159 -0.0188393 -0.0415456 0.00736358 -0.0231925 -0.00565791 0.000314273 -0.0208711 -0.00441176 -0.0144835 -0.0276145 0.00124265 0.00258103 0.0143312 0.002 0.00504425 -0.00359425 0.00504285 0.00344655 -0.00214153 0.00431209 -0.00464135 0.00588976 0.00666833 0.00904618 0.00281782 0.0111336
internal_weight=0 44263 9405 14556 6720 2685 29707 3361 8033 6523 2204 68 3359 1157 5271 3332 157 3175 1130 1252 11551 4004 537 3467 474 7547 6021 2642 1526 247
internal_count=53668 44263 9405 14556 6720 2685 29707 3361 8033 6523 2204 68 3359 1157 5271 3332 157 3175 1130 1252 11551 4004 537 3467 474 7547 6021 2642 1526 247
is_linear=0
shrinkage=0.05


Tree=28
num_leaves=31
num_cat=0
split_feature=0 0 0 0 0 0 0 22 0 2 0 0 5 11 2 9 2 8 1 11 1 8 5 0 24 8 19 1 5 1
split_gain=2358.77 373.757 347.493 71.8072 64.7142 36.3728 33.5625 13.0764 12.0037 8.843 7.72059 7.39287 10.1642 7.60104 7.20288 9.13118 7.48189 7.36239 7.03591 7.00542 7.90997 7.09036 7.93163 7.94088 9.96525 6.76119 6.68239 6.42062 6.33976 9.33382
threshold=128.50000000000003 74.500000000000014 223.50000000000003 369.50000000000006 60.500000000000007 102.50000000000001 164.50000000000003 1.0000000180025095e-35 287.50000000000006 35.015000000000008 80.500000000000014 448.50000000000006 39.32500000000001 13.500000000000002 86.195000000000007 1.0000000180025095e-35 88.605000000000004 1.5000000000000002 170.50000000000003 47.500000000000007 189.50000000000003 22.500000000000004 14.215000000000002 197.50000000000003 1.0000000180025095e-35 9.5000000000000018 1.0000000180025095e-35 163.50000000000003 99.885000000000005 85.500000000000014
decision_type=2 2 2 2 2 2 2 2 2 2 2 2 2 2 2 2 2 2 2 2 2 2 2 2 2 2 2 2 2 2
left_child=1 4 6 8 -1 7 9 10 -4 -2 27 18 13 -13 17 16 -16 -8 -5 20 -19 22 23 25 -25 -21 -20 -3 -11 -30
right_child=2 5 3 11 -6 -7 14 -9 -10 28 -12 12 -14 -15 15 -17 -18 19 26 21 -22 -23 -24 24 -26 -27 -28 -29 29 -31
leaf_value=-1.3862863924583277 -0.72692585295379508 -1.0079311016853165 0.29654895111893115 1.5850867946166325 -1.1753549815143676 -0.77334639598468158 0.53628650279636647 -0.75875682724351634 0.83138366701680444 -0.42429565130904767 -0.9377973204027712 0.29294288134868934 1.9571253181592767 2.8394458605024142 -1.9351635636304962 -0.84505034268544965 0.28151625111660222 0.1992893031261147 0.68835652753330123 -1.4820459615458472 -0.97516356363049683 0.085491404888233549 -0.37071008507064535 2.3837017120827069 -0.4334736190103321 1.2172609684677518 2.0901702531673423 -1.1978082487588044 0.1212311053414652 -1.8068012456870919
leaf_weight=1232 1215 405 7589 7842 1701 3096 186 841 9631 2999 1934 153 4190 1773 31 931 152 1359 1185 36 89 1273 3003 44 23 68 384 115 24 45
leaf_count=1232 1215 405 7589 7842 1701 3096 186 841 9631 2999 1934 153 4190 1773 31 931 152 1359 1185 36 89 1273 3003 44 23 68 384 115 24 45
internal_value=0 -0.024142 0.00353081 0.00615476 -0.0389192 -0.0173604 -0.00395539 -0.0210167 0.00393148 -0.00745972 -0.0228606 0.00862047 0.00997384 0.0129803 -0.00186935 -0.00556553 0.00464481 -0.00119224 0.00774094 -0.00150127 0.00151934 -0.00248482 -0.00374921 0.00672515 0.0201493 -0.00192308 0.00468451 -0.0282692 -0.00602999 -0.0210145
internal_weight=0 9324 44225 32747 2933 6391 11478 3295 17220 4283 2454 15527 6116 1926 7195 1114 183 6081 9411 5895 1448 4447 3174 171 67 104 1569 520 3068 69
internal_count=53549 9324 44225 32747 2933 6391 11478 3295 17220 4283 2454 15527 6116 1926 7195 1114 183 6081 9411 5895 1448 4447 3174 171 67 104 1569 520 3068 69
is_linear=0
shrinkage=0.05


Tree=29
num_leaves=31
num_cat=0
split_feature=0 0 0 0 0 0 0 0 12 22 7 0 11 3 12 11 12 13 1 10 14 12 11 19 10 11 7 14 10 10
split_gain=2157.67 381.57 332.341 64.3947 58.3268 32.0903 20.0962 13.3904 10.5521 10.3172 8.82481 8.04986 7.50264 7.9384 7.25339 11.6043 9.84156 7.22991 6.67153 6.65236 6.42142 10.4974 7.95669 6.97414 12.4462 6.95852 8.42811 6.34823 7.61295 6.31968
threshold=128.50000000000003 74.500000000000014 213.50000000000003 58.500000000000007 291.50000000000006 102.50000000000001 169.50000000000003 385.50000000000006 50.642857142857146 1.0000000180025095e-35 5.5000000000000009 64.500000000000014 16.500000000000004 7.5000000000000009 89.464285714285737 24.500000000000004 76.214285714285737 1.0000000180025095e-35 183.50000000000003 28.500000000000004 1.0000000180025095e-35 154.46428571428575 138.50000000000003 1.0000000180025095e-35 28.500000000000004 174.50000000000003 9.5000000000000018 1.0000000180025095e-35 23.500000000000004 18.500000000000004
decision_type=2 2 2 2 2 2 2 2 2 2 2 2 2 2 2 2 2 2 2 2 2 2 2 2 2 2 2 2 2 2
left_child=1 3 6 -1 20 9 10 14 -8 -3 -2 -5 13 -10 15 -6 -17 -18 -7 -11 -4 -22 -23 25 -25 -24 -27 -20 -29 -9
right_child=2 5 4 11 7 18 8 29 12 19 -12 -13 -14 -15 -16 16 17 -19 27 -21 21 22 23 24 -26 26 -28 28 -30 -31
leaf_value=-1.3126807219707548 -0.59307103745035694 -0.93334021656576494 0.39689380744486052 -1.1891067534301845 3.0650114647285549 -0.70876746848450134 -1.8577296681412925 1.3353492352906997 0.68109611916426371 -0.83028494566492383 -0.3848450134665562 -1.107102679858847 -0.25686182054609857 -0.15493391064118214 0.91211099341385171 0.23004722215456327 1.721863571805524 -0.067287264145949169 -1.391070199733325 -0.62802265797006529 -0.19479128865085898 1.865770020805912 -1.6728070287060857 -0.1041720695125271 2.9286252748819463 -0.27095727813958703 2.0683876084865385 0.51418732541911971 -0.67260454372629119 1.9593934517291025
leaf_weight=1021 2169 2425 7412 664 363 2851 57 5067 198 503 2653 1229 4834 247 9514 499 427 105 258 357 1251 219 48 54 32 158 26 28 37 8536
leaf_count=1021 2169 2425 7412 664 363 2851 57 5067 198 503 2653 1229 4834 247 9514 499 427 105 258 357 1251 219 48 54 32 158 26 28 37 8536
internal_value=0 -0.0229009 0.00352755 -0.0379204 0.00591647 -0.0161248 -0.00440047 0.00719065 -0.00228636 -0.019589 -0.00673994 -0.0324617 -0.00205531 0.0041573 0.00588559 0.00925395 0.00654704 0.0112782 -0.0125394 -0.0148837 0.00252174 -0.000167785 0.0056797 0.000628931 0.0127907 -0.00387931 0.000543478 -0.0193498 -0.00538462 0.00823715
internal_weight=0 9373 43869 2914 33711 6459 10158 24511 5336 3285 4822 1893 5279 445 10908 1394 1031 532 3174 860 9200 1788 537 318 86 232 184 323 65 13603
internal_count=53242 9373 43869 2914 33711 6459 10158 24511 5336 3285 4822 1893 5279 445 10908 1394 1031 532 3174 860 9200 1788 537 318 86 232 184 323 65 13603
is_linear=0
shrinkage=0.05


Tree=30
num_leaves=31
num_cat=0
split_feature=0 0 0 0 0 0 0 0 0 0 7 2 8 0 12 5 12 1 8 12 7 1 2 9 2 2 5 12 8 5
split_gain=1997.78 306 293.951 63.8102 39.1957 26.6737 24.4949 13.2059 10.7119 8.96543 8.42037 8.59077 8.34054 7.2943 7.68633 7.24062 7.00509 9.06163 8.03292 6.42823 6.29784 8.00075 6.59089 9.8858 7.28349 6.06638 6.33025 5.91842 6.15459 7.40906
threshold=126.50000000000001 253.50000000000003 64.500000000000014 90.500000000000014 173.50000000000003 309.50000000000006 56.500000000000007 467.50000000000006 74.500000000000014 102.50000000000001 5.5000000000000009 31.785000000000004 1.5000000000000002 201.50000000000003 221.07142857142858 8.7550000000000008 60.642857142857146 125.50000000000001 10.500000000000002 130.78571428571431 8.5000000000000018 76.500000000000014 89.285000000000011 5.5000000000000009 90.685000000000016 91.745000000000019 93.375000000000014 190.34285714285718 22.500000000000004 19.025000000000002
decision_type=2 2 2 2 2 2 2 2 2 2 2 2 2 2 2 2 2 2 2 2 2 2 2 2 2 2 2 2 2 2
left_child=2 4 6 8 10 16 -1 -7 -4 12 19 -12 -5 20 -15 -10 17 18 -3 -2 22 -22 -6 24 -24 -26 -27 28 -23 -30
right_child=1 5 3 9 13 7 -8 -9 15 -11 11 -13 -14 14 -16 -17 -18 -19 -20 -21 21 27 23 -25 25 26 -28 -29 29 -31
leaf_value=-1.2935068237124263 -0.40519360624874068 -1.6491341723879203 -0.99457514550407111 0.10942031587947305 -0.24378496834966015 1.2089361671390557 -1.1302914625206704 2.2775084076925767 0.16010638698743876 -0.69260085908395164 -0.61829308161929186 -0.20462804522381398 -0.81039509114402297 0.0069277450360310418 1.2993016133388637 -0.90095203621440989 0.46638378005983266 -2.4340556481433335 3.3562814780331678 -0.72215810596621999 -0.87013758609491565 -0.61096122744594372 2.0077467658386894 -1.4153857774830347 -1.0067062524478865 1.9166822609821481 0.32810845979235315 1.3758037036479409 1.602313196166312 -0.021590271355247739
leaf_weight=753 1179 29 1224 47 2193 18668 929 3859 23 2832 772 2228 1391 6191 171 1859 6450 61 39 1313 312 414 30 48 24 31 147 65 24 160
leaf_count=753 1179 29 1224 47 2193 18668 929 3859 23 2832 772 2228 1391 6191 171 1859 6450 61 39 1313 312 414 30 48 24 31 147 65 24 160
internal_value=0 0.00318861 -0.0225767 -0.0182755 -0.00253562 0.00619803 -0.0414388 0.00701603 -0.0237283 -0.0143091 -0.0059177 -0.00413333 -0.0175243 -0.000642202 0.000361522 -0.0213603 0.00339717 -0.00813953 0.00441176 -0.00806581 -0.0024942 -0.00589744 -0.00115245 0.00607143 0.0103448 0.00693069 0.0101124 -0.00279035 -0.00434783 0.00326087
internal_weight=0 44408 9058 7376 15302 29106 1682 22527 3106 4270 5492 3000 1438 9810 6362 1882 6579 129 68 2492 3448 975 2473 280 232 202 178 663 598 184
internal_count=53466 44408 9058 7376 15302 29106 1682 22527 3106 4270 5492 3000 1438 9810 6362 1882 6579 129 68 2492 3448 975 2473 280 232 202 178 663 598 184
is_linear=0
shrinkage=0.05


Tree=31
num_leaves=31
num_cat=0
split_feature=0 0 0 0 0 0 0 0 11 7 12 10 5 5 10 8 11 5 5 1 6 11 12 1 12 5 0 5 11 11
split_gain=1709.3 308.203 256.481 71.4325 39.8933 32.889 26.0638 14.1296 11.7469 10.7428 8.25804 7.3399 10.6254 10.7947 10.0704 7.26804 7.25766 7.20466 11.9114 7.18437 7.05333 6.83041 11.4545 10.7277 12.9817 9.60137 9.46406 7.36744 6.8243 9.65348
threshold=126.50000000000001 64.500000000000014 241.50000000000003 80.500000000000014 387.50000000000006 164.50000000000003 56.500000000000007 106.50000000000001 476.50000000000006 7.5000000000000009 109.07142857142858 16.500000000000004 33.255000000000003 48.155000000000008 49.500000000000007 1.5000000000000002 3.5000000000000004 78.185000000000016 73.27500000000002 31.500000000000004 2022.5000000000002 24.500000000000004 172.35714285714286 79.500000000000014 193.92857142857147 52.335000000000008 489.50000000000006 59.855000000000011 54.500000000000007 292.50000000000006
decision_type=2 2 2 2 2 2 2 2 2 2 2 2 2 2 2 2 2 2 2 2 2 2 2 2 2 2 2 2 2 2
left_child=1 6 5 -3 8 10 -1 28 -4 -7 -2 -12 -13 -14 -15 -11 20 18 -17 -6 -9 22 25 -24 -25 -21 27 -27 -5 -30
right_child=2 3 4 7 19 9 -8 16 -10 15 11 12 13 14 -16 17 -18 -19 -20 21 -22 -23 23 24 -26 26 -28 -29 29 -31
leaf_value=-1.2203984942455552 -0.68630816039381914 -0.95071755184428308 0.57591608751837098 -0.51526289728554253 0.93642159893972732 0.01730828570313463 -1.0650068531903216 0.49730836576110493 4.9134027747296978 0.83319376573991599 -0.50831669382901479 -0.65404123179625351 0.27804275858197086 -0.24365164736945602 -1.8220228218587176 -0.33436575031954163 -0.65099538168819826 -0.91813316201527684 1.0162125244729638 0.42223756326946149 -0.96238370804361117 1.7390312067897158 3.8665203728234667 -3.3454845264862101 1.0808462113356618 4.5710528891666247 4.1514057616131552 1.3795362058071738 -0.88438013529762438 -0.52892696012012497
leaf_weight=757 1177 1880 17223 873 906 5947 944 30 25 104 1095 597 382 1180 38 2351 2369 799 186 682 20 10909 32 61 38 110 61 578 1858 376
leaf_count=757 1177 1880 17223 873 906 5947 944 30 25 104 1095 597 382 1180 38 2351 2369 799 186 682 20 10909 32 61 38 110 61 578 1858 376
internal_value=0 -0.0209893 0.00278658 -0.0165812 0.00534041 -0.00285797 -0.0401822 -0.013717 0.00375116 -0.00117716 -0.00638845 -0.00510328 -0.0034365 -0.0013125 -0.00361248 -0.00340116 -0.0108516 -0.00380695 -0.00250296 0.00738955 0.008 0.00770187 0.00460948 -0.00954198 -0.0176768 0.00590496 0.00981308 0.00813953 -0.0159479 -0.0174127
internal_weight=0 9107 44481 7406 30625 13856 1701 5526 17248 9387 4469 3292 2197 1600 1218 3440 2419 3336 2537 13377 50 12471 1562 131 99 1431 749 688 3107 2234
internal_count=53588 9107 44481 7406 30625 13856 1701 5526 17248 9387 4469 3292 2197 1600 1218 3440 2419 3336 2537 13377 50 12471 1562 131 99 1431 749 688 3107 2234
is_linear=0
shrinkage=0.05


Tree=32
num_leaves=31
num_cat=0
split_feature=0 0 0 0 0 0 0 0 10 0 2 18 7 2 11 9 1 1 1 7 12 4 11 5 18 11 10 0 11 11
split_gain=1583.27 291.447 271.325 47.6408 34.4083 27.204 21.9564 10.9692 8.77681 8.45623 8.25942 8.6965 8.03748 8.42512 10.2852 7.58155 7.50069 7.23786 10.0452 12.5958 10.7159 7.19189 9.01489 10.4015 7.12295 7.02499 6.8627 9.03897 7.23423 12.8045
threshold=126.50000000000001 72.500000000000014 247.50000000000003 62.500000000000007 383.50000000000006 100.50000000000001 173.50000000000003 54.500000000000007 5.5000000000000009 80.500000000000014 15.725000000000003 1.0000000180025095e-35 5.5000000000000009 28.945000000000004 363.50000000000006 5.5000000000000009 26.500000000000004 128.50000000000003 46.500000000000007 11.500000000000002 97.071428571428584 1.0000000180025095e-35 258.50000000000006 69.935000000000016 1.0000000180025095e-35 50.500000000000007 15.500000000000002 221.50000000000003 46.500000000000007 58.500000000000007
decision_type=2 2 2 2 2 2 2 2 2 2 2 2 2 2 2 2 2 2 2 2 2 2 2 2 2 2 2 2 2 2
left_child=1 3 6 7 -4 9 12 -1 -7 -3 11 15 -2 14 16 -10 -14 18 19 -15 -20 22 -19 -24 25 -23 -8 28 -28 -30
right_child=2 5 4 -5 -6 8 26 -9 10 -11 -12 -13 13 17 -16 -17 -18 21 20 -21 -22 24 23 -25 -26 -27 27 -29 29 -31
leaf_value=-1.1117237746307538 -0.47823614452894248 -0.88268061730119673 0.60884900833237199 -0.97909058886186706 1.5782137075151277 -0.14617455373656726 0.057617852453208586 -1.0983509746670588 -0.16199750696999404 -0.68245668902515078 -0.69205374149733034 0.52410882592050534 0.6572259395056439 0.35486149073058471 -0.67631289302808606 -0.98602369828888969 -0.61641594566269342 -0.50679497343274205 -0.83701092292872092 -0.92817776515631323 -0.3440959783883713 -0.80127400785598513 -0.8613841660839463 1.4165904449019664 0.68434666274690847 0.40083936290656086 0.015646633904006536 0.035742397288684204 -0.89874559601335702 -0.40496044114346791
leaf_weight=541 2466 932 15981 1209 13912 348 2856 934 115 2419 2609 48 26 313 34 21 617 377 201 36 890 94 35 29 111 270 955 2125 228 2803
leaf_count=541 2466 932 15981 1209 13912 348 2856 934 115 2419 2609 48 26 313 34 21 617 377 201 36 890 94 35 29 111 270 955 2125 228 2803
internal_value=0 -0.0200087 0.00280777 -0.0338674 0.00552805 -0.0142791 -0.00281349 -0.0398983 -0.010936 -0.0174127 -0.011869 -0.00163043 -0.00530096 -0.00357732 -0.00849335 -0.00808824 -0.00707621 -0.00216469 -0.004375 0.0030086 -0.00673694 0.00131004 -0.00328798 0.0140625 0.00557895 0.0021978 -0.00128806 -0.00223368 -0.00363773 -0.00483339
internal_weight=0 9176 44359 2684 29893 6492 14466 1475 3141 3351 2793 184 5499 3033 677 136 643 2356 1440 349 1091 916 441 64 475 364 8967 6111 3986 3031
internal_count=53535 9176 44359 2684 29893 6492 14466 1475 3141 3351 2793 184 5499 3033 677 136 643 2356 1440 349 1091 916 441 64 475 364 8967 6111 3986 3031
is_linear=0
shrinkage=0.05


Tree=33
num_leaves=31
num_cat=0
split_feature=0 0 0 0 0 0 0 0 11 2 1 8 2 2 9 9 24 1 1 2 8 8 1 11 1 8 0 1 2 9
split_gain=1400.69 339.981 163.552 69.5525 23.7565 20.9518 13.4968 13.324 8.25737 6.86477 6.70137 9.66982 6.52609 9.49641 8.02409 7.09808 9.23171 6.46982 9.3704 7.83043 9.38197 8.1819 6.45475 7.30368 7.05856 6.18509 6.02102 7.07424 5.99676 6.73417
threshold=146.50000000000003 80.500000000000014 273.50000000000006 62.500000000000007 217.50000000000003 110.50000000000001 56.500000000000007 387.50000000000006 476.50000000000006 15.725000000000003 112.50000000000001 1.5000000000000002 99.345000000000013 86.875000000000014 1.5000000000000002 1.0000000180025095e-35 1.0000000180025095e-35 123.50000000000001 109.50000000000001 24.595000000000002 5.5000000000000009 27.500000000000004 116.50000000000001 318.50000000000006 121.50000000000001 12.500000000000002 86.500000000000014 159.50000000000003 44.625000000000007 1.5000000000000002
decision_type=2 2 2 2 2 2 2 2 2 2 2 2 2 2 2 2 2 2 2 2 2 2 2 2 2 2 2 2 2 2
left_child=1 3 4 6 12 10 -1 8 -4 -6 -3 -12 13 -2 -14 16 -15 18 19 20 -11 -21 -13 24 -24 -7 -25 -28 -20 -30
right_child=2 5 7 -5 9 25 -8 -9 -10 17 11 22 14 15 -16 -17 -18 -19 28 21 -22 -23 23 26 -26 -27 27 -29 29 -31
leaf_value=-1.1023408885676689 -0.17380864331506063 -0.75194709056688969 0.72110916195312458 -0.8693133019628434 -0.46531240307896804 -0.65756574458403494 -0.92940385191920294 1.4430353387149069 3.8684802291924556 2.548414564728922 0.3147540582936092 0.043509932599356385 1.2612656690776873 -0.56455018693276171 -0.071622764815617759 -0.69686572491884113 0.75918939240654559 0.43448242677182841 -1.1198855400740702 -0.062201628981958385 0.5071016711382107 0.95277413792585941 -1.1160816273904315 -1.0409260349762097 -0.70851854202475695 -0.44128121392754738 -0.24830030098648434 0.52955615951219426 -0.73198879048001475 0.47340848695070292
leaf_weight=760 7314 1812 13455 2175 434 1671 702 13350 21 45 62 88 23 147 33 1015 48 2710 150 2539 250 295 82 26 1371 2647 68 38 68 226
leaf_count=760 7314 1812 13455 2175 434 1671 702 13350 21 45 62 88 23 147 33 1015 48 2710 150 2539 250 295 82 26 1371 2647 68 38 68 226
internal_value=0 -0.0165449 0.00314199 -0.0291861 -0.000983853 -0.0106993 -0.0376197 0.00549467 0.00438557 0.00124311 -0.0135467 -0.0113256 -0.00272727 -0.00283904 0.0142857 -0.00694215 0.00179487 0.00166322 0.000265883 0.00123043 0.00898305 0.00042343 -0.0120442 -0.012776 -0.013799 -0.00836035 -0.00151515 0.00377358 -0.00653153 -0.00238095
internal_weight=0 11502 42123 3637 15297 7865 1462 26826 13476 6717 3547 1735 8580 8524 56 1210 195 6283 3573 3129 295 2834 1673 1585 1453 4318 132 106 444 294
internal_count=53625 11502 42123 3637 15297 7865 1462 26826 13476 6717 3547 1735 8580 8524 56 1210 195 6283 3573 3129 295 2834 1673 1585 1453 4318 132 106 444 294
is_linear=0
shrinkage=0.05


Tree=34
num_leaves=31
num_cat=0
split_feature=0 0 0 0 0 0 0 0 0 5 1 10 3 1 10 1 11 12 11 1 2 19 2 1 11 5 8 0 2 5
split_gain=1278.02 233.483 190.912 42.5442 33.1254 18.497 17.0481 11.9664 9.69074 10.4326 9.1299 8.61913 8.49134 7.54726 12.3138 8.69188 7.31533 6.99671 7.76311 6.87029 6.55511 6.50299 6.49737 7.10075 6.39154 6.33595 6.31515 7.5116 6.26418 8.07256
threshold=126.50000000000001 64.500000000000014 223.50000000000003 94.500000000000014 339.50000000000006 173.50000000000003 56.500000000000007 74.500000000000014 448.50000000000006 38.585000000000008 110.50000000000001 15.500000000000002 17.500000000000004 117.50000000000001 5.5000000000000009 177.50000000000003 413.50000000000006 50.642857142857146 17.500000000000004 178.50000000000003 15.725000000000003 1.0000000180025095e-35 13.455000000000002 183.50000000000003 360.50000000000006 95.465000000000018 7.5000000000000009 207.50000000000003 99.045000000000016 82.675000000000026
decision_type=2 2 2 2 2 2 2 2 2 2 2 2 2 2 2 2 2 2 2 2 2 2 2 2 2 2 2 2 2 2
left_child=1 6 5 7 -4 28 -1 21 19 24 -5 -7 13 -11 15 -15 -16 -13 20 -6 -19 25 -12 -24 -10 -3 -22 -28 29 -2
right_child=2 3 4 10 8 11 -8 -9 9 12 22 17 -14 14 16 -17 -18 18 -20 -21 26 -23 23 -25 -26 -27 27 -29 -30 -31
leaf_value=-1.0529937812390564 -0.28866356061444842 -0.87023506268167994 0.35580299194259912 -0.67601846914372032 0.99733438696474941 0.1015798615767622 -0.9148525425955315 -0.72948433198455176 2.4172448847399894 1.1197177625070063 0.072923935982436919 -1.6472845558902087 0.3546816371326571 -1.3939942842908608 2.4629842932168589 4.0045864312533261 -3.4743130114779142 -2.0102485561163168 -0.29158710514222225 0.33299782417064994 -0.88325432672294613 -0.6215472690370536 -0.45922440864275843 -0.78608243356838736 -0.4847800318097889 -1.3364433439224712 1.208656333839504 -0.086609875486996668 0.66604706340051723 -0.6492409491943093
leaf_weight=760 4498 886 13637 1929 11315 1972 946 2354 1816 1806 85 54 871 117 1394 48 30 26 3778 1567 69 305 1486 351 98 37 156 95 59 975
leaf_count=760 4498 886 13637 1929 11315 1972 946 2354 1816 1806 85 54 871 117 1394 48 30 26 3778 1567 69 305 1486 351 98 37 156 95 59 975
internal_value=0 -0.0181366 0.0023963 -0.0143078 0.0043564 -0.00309022 -0.0348183 -0.01823 0.00570244 0.0073301 -0.0106596 -0.00120325 0.00595406 0.00708395 0.00959723 -0.00333333 0.0110955 -0.00248923 -0.00225509 0.0049216 0.00491329 -0.0222313 -0.0082206 -0.00884594 0.0103971 -0.0243229 0.006875 0.0105578 -0.005188 -0.00536269
internal_weight=0 9139 44381 7433 32699 11682 1706 3582 19062 6180 3851 6150 4266 3395 1589 165 1424 4178 4124 12882 346 1228 1922 1837 1914 923 320 251 5532 5473
internal_count=53520 9139 44381 7433 32699 11682 1706 3582 19062 6180 3851 6150 4266 3395 1589 165 1424 4178 4124 12882 346 1228 1922 1837 1914 923 320 251 5532 5473
is_linear=0
shrinkage=0.05


Tree=35
num_leaves=31
num_cat=0
split_feature=0 0 0 0 0 0 0 5 2 0 10 12 5 20 5 11 11 5 3 11 0 2 10 2 11 2 2 5 3 2
